{"learner":{"attributes":{"scikit_learn":"{\"_estimator_type\": \"regressor\"}"},"feature_names":["hour","day_of_week","month","is_weekend","is_peak_hour","is_holiday","avg_temp","discount_rate","loyalty_ratio","hourly_revenue","lag_1h","lag_24","lag_168","rolling_mean_24","rolling_std_24"],"feature_types":["int","int","int","int","int","int","float","float","float","float","float","float","float","float","float"],"gradient_booster":{"model":{"cats":{"enc":[],"feature_segments":[],"sorted_idx":[]},"gbtree_model_param":{"num_parallel_tree":"1","num_trees":"400"},"iteration_indptr":[0,1,2,3,4,5,6,7,8,9,10,11,12,13,14,15,16,17,18,19,20,21,22,23,24,25,26,27,28,29,30,31,32,33,34,35,36,37,38,39,40,41,42,43,44,45,46,47,48,49,50,51,52,53,54,55,56,57,58,59,60,61,62,63,64,65,66,67,68,69,70,71,72,73,74,75,76,77,78,79,80,81,82,83,84,85,86,87,88,89,90,91,92,93,94,95,96,97,98,99,100,101,102,103,104,105,106,107,108,109,110,111,112,113,114,115,116,117,118,119,120,121,122,123,124,125,126,127,128,129,130,131,132,133,134,135,136,137,138,139,140,141,142,143,144,145,146,147,148,149,150,151,152,153,154,155,156,157,158,159,160,161,162,163,164,165,166,167,168,169,170,171,172,173,174,175,176,177,178,179,180,181,182,183,184,185,186,187,188,189,190,191,192,193,194,195,196,197,198,199,200,201,202,203,204,205,206,207,208,209,210,211,212,213,214,215,216,217,218,219,220,221,222,223,224,225,226,227,228,229,230,231,232,233,234,235,236,237,238,239,240,241,242,243,244,245,246,247,248,249,250,251,252,253,254,255,256,257,258,259,260,261,262,263,264,265,266,267,268,269,270,271,272,273,274,275,276,277,278,279,280,281,282,283,284,285,286,287,288,289,290,291,292,293,294,295,296,297,298,299,300,301,302,303,304,305,306,307,308,309,310,311,312,313,314,315,316,317,318,319,320,321,322,323,324,325,326,327,328,329,330,331,332,333,334,335,336,337,338,339,340,341,342,343,344,345,346,347,348,349,350,351,352,353,354,355,356,357,358,359,360,361,362,363,364,365,366,367,368,369,370,371,372,373,374,375,376,377,378,379,380,381,382,383,384,385,386,387,388,389,390,391,392,393,394,395,396,397,398,399,400],"tree_info":[0,0,0,0,0,0,0,0,0,0,0,0,0,0,0,0,0,0,0,0,0,0,0,0,0,0,0,0,0,0,0,0,0,0,0,0,0,0,0,0,0,0,0,0,0,0,0,0,0,0,0,0,0,0,0,0,0,0,0,0,0,0,0,0,0,0,0,0,0,0,0,0,0,0,0,0,0,0,0,0,0,0,0,0,0,0,0,0,0,0,0,0,0,0,0,0,0,0,0,0,0,0,0,0,0,0,0,0,0,0,0,0,0,0,0,0,0,0,0,0,0,0,0,0,0,0,0,0,0,0,0,0,0,0,0,0,0,0,0,0,0,0,0,0,0,0,0,0,0,0,0,0,0,0,0,0,0,0,0,0,0,0,0,0,0,0,0,0,0,0,0,0,0,0,0,0,0,0,0,0,0,0,0,0,0,0,0,0,0,0,0,0,0,0,0,0,0,0,0,0,0,0,0,0,0,0,0,0,0,0,0,0,0,0,0,0,0,0,0,0,0,0,0,0,0,0,0,0,0,0,0,0,0,0,0,0,0,0,0,0,0,0,0,0,0,0,0,0,0,0,0,0,0,0,0,0,0,0,0,0,0,0,0,0,0,0,0,0,0,0,0,0,0,0,0,0,0,0,0,0,0,0,0,0,0,0,0,0,0,0,0,0,0,0,0,0,0,0,0,0,0,0,0,0,0,0,0,0,0,0,0,0,0,0,0,0,0,0,0,0,0,0,0,0,0,0,0,0,0,0,0,0,0,0,0,0,0,0,0,0,0,0,0,0,0,0,0,0,0,0,0,0,0,0,0,0,0,0,0,0,0,0,0,0,0,0,0,0,0,0,0,0,0,0,0,0,0,0,0,0,0,0,0,0,0,0,0,0,0,0,0,0,0,0,0,0,0,0,0,0],"trees":[{"base_weights":[2.0047097E-2,-1.020594E0,2.8472826E0,-1.6740901E0,-2.4343634E-3,1.7472651E0,4.125211E0,-2.0136454E0,-1.2323006E0,-5.2839273E-1,3.4383798E-1,1.3717633E0,2.2338228E0,3.6604693E0,6.2712545E0,-2.085094E0,-1.7199266E0,-1.312089E0,-7.911747E-1,-6.773133E-1,3.366204E-2,-9.345061E-1,4.5083544E-1,9.242957E-1,1.8081381E0,3.2609928E0,1.8588237E0,2.0277581E0,3.8945744E0,4.5546093E0,7.2541733E0,-1.043152E-1,-2.813886E-2,-8.0897465E-2,-9.86121E-2,-6.2273692E-2,-8.752739E-2,-2.72595E-3,-6.0092296E-2,-7.1120776E-2,-2.9042661E-2,4.9732964E-2,-1.6188035E-2,-7.644691E-2,-2.4831539E-2,2.7478958E-2,-2.079652E-2,1.4520176E-2,6.312113E-2,8.1269845E-2,1.2421554E-1,2.0082581E-1,1.4045587E-1,6.689472E-2,1.2671314E-1,8.315747E-2,1.5674543E-1,1.4486507E-1,2.1168518E-1,2.3923098E-1,2.914819E-2,4.0893155E-1,2.8981718E-1],"categories":[],"categories_nodes":[],"categories_segments":[],"categories_sizes":[],"default_left":[0,0,0,0,0,0,0,0,0,0,0,0,0,0,0,0,0,0,0,0,0,0,0,0,0,0,0,0,0,0,0,0,0,0,0,0,0,0,0,0,0,0,0,0,0,0,0,0,0,0,0,0,0,0,0,0,0,0,0,0,0,0,0],"id":0,"left_children":[1,3,5,7,9,11,13,15,17,19,21,23,25,27,29,31,33,35,37,39,41,43,45,47,49,51,53,55,57,59,61,-1,-1,-1,-1,-1,-1,-1,-1,-1,-1,-1,-1,-1,-1,-1,-1,-1,-1,-1,-1,-1,-1,-1,-1,-1,-1,-1,-1,-1,-1,-1,-1],"loss_changes":[1.1624348E4,1.9215652E3,1.4870977E3,2.6139014E2,2.0598274E2,1.01624756E2,4.667461E2,1.7252441E1,2.5957642E1,3.760479E1,9.370497E1,6.198468E1,8.9464966E1,1.4728613E2,1.12069824E2,2.8857422E-1,1.9551392E0,1.674646E1,3.6237267E1,2.4688568E1,3.2952847E1,1.30359E1,5.414882E1,3.457016E1,1.6226624E1,1.0908264E1,6.1350952E1,1.618106E1,1.07458496E2,2.8270325E1,2.4021729E1,0E0,0E0,0E0,0E0,0E0,0E0,0E0,0E0,0E0,0E0,0E0,0E0,0E0,0E0,0E0,0E0,0E0,0E0,0E0,0E0,0E0,0E0,0E0,0E0,0E0,0E0,0E0,0E0,0E0,0E0,0E0,0E0],"parents":[2147483647,0,0,1,1,2,2,3,3,4,4,5,5,6,6,7,7,8,8,9,9,10,10,11,11,12,12,13,13,14,14,15,15,16,16,17,17,18,18,19,19,20,20,21,21,22,22,23,23,24,24,25,25,26,26,27,27,28,28,29,29,30,30],"right_children":[2,4,6,8,10,12,14,16,18,20,22,24,26,28,30,32,34,36,38,40,42,44,46,48,50,52,54,56,58,60,62,-1,-1,-1,-1,-1,-1,-1,-1,-1,-1,-1,-1,-1,-1,-1,-1,-1,-1,-1,-1,-1,-1,-1,-1,-1,-1,-1,-1,-1,-1,-1,-1],"split_conditions":[2.776E1,1.239E1,4.602E1,6.44E0,1.686E1,6.25E-2,8.621E1,5.36E0,6.25E-2,6.25E-2,6E0,4E0,1.8181819E-1,6.666667E-2,5E0,1.2E1,5.555556E-1,7.1428573E-1,3.6363637E-1,5E0,2.6666668E-1,6.666667E-2,1.8E1,6.666667E-2,4.114E1,1.6666667E-1,3.735E1,6E0,3E0,6E0,9E0,-1.043152E-1,-2.813886E-2,-8.0897465E-2,-9.86121E-2,-6.2273692E-2,-8.752739E-2,-2.72595E-3,-6.0092296E-2,-7.1120776E-2,-2.9042661E-2,4.9732964E-2,-1.6188035E-2,-7.644691E-2,-2.4831539E-2,2.7478958E-2,-2.079652E-2,1.4520176E-2,6.312113E-2,8.1269845E-2,1.2421554E-1,2.0082581E-1,1.4045587E-1,6.689472E-2,1.2671314E-1,8.315747E-2,1.5674543E-1,1.4486507E-1,2.1168518E-1,2.3923098E-1,2.914819E-2,4.0893155E-1,2.8981718E-1],"split_indices":[9,9,9,9,9,7,9,9,7,7,0,10,7,8,1,10,8,8,7,0,7,8,0,8,9,7,9,10,1,11,0,0,0,0,0,0,0,0,0,0,0,0,0,0,0,0,0,0,0,0,0,0,0,0,0,0,0,0,0,0,0,0,0],"split_type":[0,0,0,0,0,0,0,0,0,0,0,0,0,0,0,0,0,0,0,0,0,0,0,0,0,0,0,0,0,0,0,0,0,0,0,0,0,0,0,0,0,0,0,0,0,0,0,0,0,0,0,0,0,0,0,0,0,0,0,0,0,0,0],"sum_hessian":[3.949E3,2.887E3,1.062E3,1.758E3,1.129E3,5.72E2,4.9E2,9.92E2,7.66E2,4.48E2,6.81E2,3.25E2,2.47E2,4.05E2,8.5E1,7.93E2,1.99E2,6.47E2,1.19E2,3.54E2,9.4E1,5.2E1,6.29E2,1.62E2,1.63E2,6.4E1,1.83E2,5.2E1,3.53E2,3.3E1,5.2E1,7.92E2,1E0,1.47E2,5.2E1,5.65E2,8.2E1,4.3E1,7.6E1,3.9E1,3.15E2,2.5E1,6.9E1,2.1E1,3.1E1,5.65E2,6.4E1,5.7E1,1.05E2,1.31E2,3.2E1,2.1E1,4.3E1,1.05E2,7.8E1,4.1E1,1.1E1,9.2E1,2.61E2,3.1E1,2E0,2.9E1,2.3E1],"tree_param":{"num_deleted":"0","num_feature":"15","num_nodes":"63","size_leaf_vector":"1"}},{"base_weights":[-3.6584635E-3,-1.0547498E0,7.879289E-1,-1.7599924E0,-8.270864E-1,2.2068152E0,-5.168125E-1,-1.8161863E0,-1.5110123E0,-4.1953608E-1,-1.7042415E0,4.1198125E0,1.9077871E0,2.170294E-1,-1.7870344E0,-1.8282697E0,-6.602779E-1,-7.9446666E-2,-9.752056E-1,-6.093201E-1,2.2687839E-1,-1.3393989E0,-1.7963912E0,3.2109794E-1,3.7000933E0,1.6180651E0,3.2020178E0,-1.735955E-1,1.1745024E0,-1.7930489E0,1.9829398E-2,-8.0454275E-2,-9.473951E-2,-2.7341545E-3,-3.990029E-2,-6.057333E-2,4.649814E-2,-3.7925895E-2,-1.2536882E-2,5.0778445E-2,-6.741001E-3,-6.950602E-2,-2.1571254E-2,-9.008952E-2,-1.5820146E-3,1.7480348E-1,3.5819444E-1,1.17806256E-1,3.784709E-2,2.5173783E-1,1.3619027E-1,-3.323718E-2,1.2070672E-2,1.4843348E-1,2.7906079E-2,-9.701905E-2,-8.56696E-2],"categories":[],"categories_nodes":[],"categories_segments":[],"categories_sizes":[],"default_left":[0,0,0,0,0,0,0,0,0,0,0,0,0,0,0,0,0,0,0,0,0,0,0,0,0,0,0,0,0,0,0,0,0,0,0,0,0,0,0,0,0,0,0,0,0,0,0,0,0,0,0,0,0,0,0,0,0],"id":1,"left_children":[1,3,5,7,9,11,13,15,17,19,21,23,25,27,29,31,33,-1,35,37,39,41,43,-1,45,47,49,51,53,55,-1,-1,-1,-1,-1,-1,-1,-1,-1,-1,-1,-1,-1,-1,-1,-1,-1,-1,-1,-1,-1,-1,-1,-1,-1,-1,-1],"loss_changes":[3.2848564E3,2.708507E2,4.1702227E3,3.0340576E0,4.5829547E2,6.093716E2,1.0947225E3,3.4299316E0,1.8740082E0,1.07850525E2,1.1277344E1,1.16345215E2,3.454131E2,2.788434E2,6.3585205E0,1.7333984E0,3.7339902E-1,0E0,6.978139E0,3.613614E1,5.7190536E1,3.3608856E0,3.0109863E0,0E0,6.3291748E1,4.8505603E2,1.35281E2,1.0819083E2,2.372154E2,1.710083E0,0E0,0E0,0E0,0E0,0E0,0E0,0E0,0E0,0E0,0E0,0E0,0E0,0E0,0E0,0E0,0E0,0E0,0E0,0E0,0E0,0E0,0E0,0E0,0E0,0E0,0E0,0E0],"parents":[2147483647,0,0,1,1,2,2,3,3,4,4,5,5,6,6,7,7,8,8,9,9,10,10,11,11,12,12,13,13,14,14,15,15,16,16,18,18,19,19,20,20,21,21,22,22,24,24,25,25,26,26,27,27,28,28,29,29],"right_children":[2,4,6,8,10,12,14,16,18,20,22,24,26,28,30,32,34,-1,36,38,40,42,44,-1,46,48,50,52,54,56,-1,-1,-1,-1,-1,-1,-1,-1,-1,-1,-1,-1,-1,-1,-1,-1,-1,-1,-1,-1,-1,-1,-1,-1,-1,-1,-1],"split_conditions":[6.666667E-2,6E0,4.6666667E-1,5E0,1.8E1,2E-1,1E0,9E0,6E0,5E0,1.9E1,1.25E-1,3.6363637E-1,5.555556E-1,1E0,1E0,3E0,-7.9446666E-2,1E1,1E0,1.1E1,9E0,1E0,3.2109794E-1,1.8181819E-1,3.3333334E-1,4E-1,3E0,6.666667E-1,6E0,1.9829398E-2,-8.0454275E-2,-9.473951E-2,-2.7341545E-3,-3.990029E-2,-6.057333E-2,4.649814E-2,-3.7925895E-2,-1.2536882E-2,5.0778445E-2,-6.741001E-3,-6.950602E-2,-2.1571254E-2,-9.008952E-2,-1.5820146E-3,1.7480348E-1,3.5819444E-1,1.17806256E-1,3.784709E-2,2.5173783E-1,1.3619027E-1,-3.323718E-2,1.2070672E-2,1.4843348E-1,2.7906079E-2,-9.701905E-2,-8.56696E-2],"split_indices":[8,0,8,0,0,8,8,11,1,1,0,8,8,8,5,0,1,0,2,4,0,12,5,0,8,8,8,10,8,0,0,0,0,0,0,0,0,0,0,0,0,0,0,0,0,0,0,0,0,0,0,0,0,0,0,0,0],"split_type":[0,0,0,0,0,0,0,0,0,0,0,0,0,0,0,0,0,0,0,0,0,0,0,0,0,0,0,0,0,0,0,0,0,0,0,0,0,0,0,0,0,0,0,0,0,0,0,0,0,0,0,0,0,0,0,0,0],"sum_hessian":[3.946E3,1.695E3,2.251E3,4.12E2,1.283E3,1.078E3,1.173E3,3.31E2,8.1E1,8.77E2,4.06E2,1.44E2,9.34E2,7.44E2,4.29E2,3.27E2,4E0,6.9E1,1.2E1,6.78E2,1.99E2,8.5E1,3.21E2,2E1,1.24E2,7.65E2,1.69E2,5.29E2,2.15E2,4.28E2,1E0,8.2E1,2.45E2,1E0,3E0,1.1E1,1E0,4.78E2,2E2,6.2E1,1.37E2,8E1,5E0,3.2E2,1E0,1.19E2,5E0,4.11E2,3.54E2,3.3E1,1.36E2,2.42E2,2.87E2,5.4E1,1.61E2,1.42E2,2.86E2],"tree_param":{"num_deleted":"0","num_feature":"15","num_nodes":"57","size_leaf_vector":"1"}},{"base_weights":[-7.301791E-3,-1.0091846E0,7.379616E-1,-1.2940203E0,-5.556432E-1,2.0963826E0,-4.863642E-1,-1.3795843E0,-9.010036E-1,-6.2233645E-1,2.8323692E-1,4.050944E0,1.8060534E0,2.3278049E-1,-1.6897281E0,-1.4695902E0,-1.1743277E0,-3.2700676E-1,-1.0339243E0,-5.549141E-1,-1.3973697E0,6.114824E-1,-7.7981013E-1,3.0724925E-1,3.6473656E0,1.4982913E0,3.11126E0,-1.6448404E-1,1.1407884E0,-1.6952262E0,1.933366E-2,-7.376321E-2,4.6666663E-2,-6.557133E-2,-5.0144035E-2,-4.9170595E-2,4.802326E-2,-3.769423E-2,-6.958226E-2,-5.2238535E-2,-2.3916736E-2,-7.275357E-2,-2.341032E-3,5.4646223E-3,5.064064E-2,1.0454837E-2,-4.992506E-2,1.6537414E-1,3.5106692E-1,1.1097479E-1,3.2512892E-2,2.4382341E-1,1.3394372E-1,-2.4221854E-2,2.0025471E-2,1.457828E-1,2.678271E-2,-5.8110815E-2,-8.5487105E-2],"categories":[],"categories_nodes":[],"categories_segments":[],"categories_sizes":[],"default_left":[0,0,0,0,0,0,0,0,0,0,0,0,0,0,0,0,0,0,0,0,0,0,0,0,0,0,0,0,0,0,0,0,0,0,0,0,0,0,0,0,0,0,0,0,0,0,0,0,0,0,0,0,0,0,0,0,0,0,0],"id":2,"left_children":[1,3,5,7,9,11,13,15,17,19,21,23,25,27,29,31,33,35,37,39,41,43,45,-1,47,49,51,53,55,57,-1,-1,-1,-1,-1,-1,-1,-1,-1,-1,-1,-1,-1,-1,-1,-1,-1,-1,-1,-1,-1,-1,-1,-1,-1,-1,-1,-1,-1],"loss_changes":[2.9687441E3,2.1837854E2,3.7930015E3,3.3763916E1,3.6877914E1,6.0611426E2,1.0388647E3,1.4032715E1,1.4081863E1,3.099533E1,1.757492E1,9.505737E1,3.74135E2,2.714486E2,5.781372E0,9.407349E0,4.913666E0,3.2213352E1,1.4277817E1,2.0544998E1,3.67247E0,7.5479813E0,2.8039641E0,0E0,1.13240845E2,4.664348E2,1.2355859E2,9.491822E1,2.4439182E2,1.4790039E0,0E0,0E0,0E0,0E0,0E0,0E0,0E0,0E0,0E0,0E0,0E0,0E0,0E0,0E0,0E0,0E0,0E0,0E0,0E0,0E0,0E0,0E0,0E0,0E0,0E0,0E0,0E0,0E0,0E0],"parents":[2147483647,0,0,1,1,2,2,3,3,4,4,5,5,6,6,7,7,8,8,9,9,10,10,11,11,12,12,13,13,14,14,15,15,16,16,17,17,18,18,19,19,20,20,21,21,22,22,24,24,25,25,26,26,27,27,28,28,29,29],"right_children":[2,4,6,8,10,12,14,16,18,20,22,24,26,28,30,32,34,36,38,40,42,44,46,-1,48,50,52,54,56,58,-1,-1,-1,-1,-1,-1,-1,-1,-1,-1,-1,-1,-1,-1,-1,-1,-1,-1,-1,-1,-1,-1,-1,-1,-1,-1,-1,-1,-1],"split_conditions":[6.666667E-2,3E0,5E-1,1E0,8E0,2E-1,1E0,2E0,2E0,2.26E1,5E0,1.25E-1,3.6363637E-1,5.555556E-1,1E0,1.2E1,2.9166667E0,4E0,3E0,6.66E0,1.1E1,1E0,3.5E0,3.0724925E-1,1.8181819E-1,3.3333334E-1,4E-1,4E0,6.666667E-1,2.1666667E0,1.933366E-2,-7.376321E-2,4.6666663E-2,-6.557133E-2,-5.0144035E-2,-4.9170595E-2,4.802326E-2,-3.769423E-2,-6.958226E-2,-5.2238535E-2,-2.3916736E-2,-7.275357E-2,-2.341032E-3,5.4646223E-3,5.064064E-2,1.0454837E-2,-4.992506E-2,1.6537414E-1,3.5106692E-1,1.1097479E-1,3.2512892E-2,2.4382341E-1,1.3394372E-1,-2.4221854E-2,2.0025471E-2,1.457828E-1,2.678271E-2,-5.8110815E-2,-8.5487105E-2],"split_indices":[8,10,8,4,10,8,8,10,11,6,11,8,8,8,5,11,13,1,1,6,12,4,13,0,8,8,8,10,8,13,0,0,0,0,0,0,0,0,0,0,0,0,0,0,0,0,0,0,0,0,0,0,0,0,0,0,0,0,0],"split_type":[0,0,0,0,0,0,0,0,0,0,0,0,0,0,0,0,0,0,0,0,0,0,0,0,0,0,0,0,0,0,0,0,0,0,0,0,0,0,0,0,0,0,0,0,0,0,0,0,0,0,0,0,0,0,0,0,0,0,0],"sum_hessian":[3.974E3,1.695E3,2.279E3,1.04E3,6.55E2,1.08E3,1.199E3,8.52E2,1.88E2,6.07E2,4.8E1,1.38E2,9.42E2,7.51E2,4.48E2,5.88E2,2.64E2,3.6E1,1.52E2,5.6E2,4.7E1,3.7E1,1.1E1,2E1,1.18E2,7.64E2,1.78E2,5.23E2,2.28E2,4.47E2,1E0,5.87E2,1E0,1.43E2,1.21E2,2.4E1,1.2E1,8.7E1,6.5E1,7.4E1,4.86E2,4.5E1,2E0,1.7E1,2E1,2E0,9E0,1.09E2,9E0,4.12E2,3.52E2,3.3E1,1.45E2,3.34E2,1.89E2,5.7E1,1.71E2,1.4E1,4.33E2],"tree_param":{"num_deleted":"0","num_feature":"15","num_nodes":"59","size_leaf_vector":"1"}},{"base_weights":[4.126736E-3,-9.3253756E-1,2.3970792E0,-1.5040596E0,-1.2489927E-1,1.6974165E0,4.124735E0,-1.7796297E0,-1.1080438E0,-4.751197E-1,2.4925084E-1,1.062567E0,2.2264476E0,3.6462195E0,5.6856017E0,-9.204978E-2,-1.5432254E0,-1.056954E0,-1.4179765E0,-1.139095E0,-3.6060852E-1,-7.5488675E-1,3.235828E-1,4.7923863E-1,1.2454938E0,1.5016667E0,2.5465267E0,2.216302E0,3.831134E0,5.978462E0,1.3701054E0,-7.968384E-2,-5.9369702E-2,-6.112373E-2,-3.971268E-2,-6.1944176E-2,-7.9870254E-2,-6.773569E-2,-4.5170028E-2,-1.1596366E-2,-5.0814033E-2,-5.7036467E-2,-2.2506403E-2,1.9421062E-2,-3.5589363E-2,3.0705115E-2,-5.9416104E-2,1.3336702E-1,5.5339433E-2,5.2170467E-2,9.930861E-2,1.1297419E-1,1.4832729E-1,1.2951677E-1,2.8192654E-2,1.57038E-1,2.0294587E-1,1.66406E-1,3.211866E-1,3.1148992E-3,1.0042173E-1],"categories":[],"categories_nodes":[],"categories_segments":[],"categories_sizes":[],"default_left":[0,0,0,0,0,0,0,0,0,0,0,0,0,0,0,0,0,0,0,0,0,0,0,0,0,0,0,0,0,0,0,0,0,0,0,0,0,0,0,0,0,0,0,0,0,0,0,0,0,0,0,0,0,0,0,0,0,0,0,0,0],"id":3,"left_children":[1,3,5,7,9,11,13,15,17,19,21,23,25,27,29,-1,31,33,35,37,39,41,43,45,47,49,51,53,55,57,59,-1,-1,-1,-1,-1,-1,-1,-1,-1,-1,-1,-1,-1,-1,-1,-1,-1,-1,-1,-1,-1,-1,-1,-1,-1,-1,-1,-1,-1,-1],"loss_changes":[8.947635E3,1.324094E3,1.3504546E3,1.813667E2,1.5605008E2,2.666543E2,2.2051758E2,1.1506348E1,9.458618E0,4.634929E1,4.323663E1,3.845761E1,9.7322266E1,5.761206E1,8.533276E1,0E0,1.877655E0,2.5031494E1,1.0737762E0,3.3499603E0,4.4144333E1,4.1900787E0,3.632625E1,2.074526E1,5.1874268E1,2.8123444E1,2.958667E1,1.769963E1,2.1848389E1,6.0049072E1,4.883748E0,0E0,0E0,0E0,0E0,0E0,0E0,0E0,0E0,0E0,0E0,0E0,0E0,0E0,0E0,0E0,0E0,0E0,0E0,0E0,0E0,0E0,0E0,0E0,0E0,0E0,0E0,0E0,0E0,0E0,0E0],"parents":[2147483647,0,0,1,1,2,2,3,3,4,4,5,5,6,6,7,7,8,8,9,9,10,10,11,11,12,12,13,13,14,14,16,16,17,17,18,18,19,19,20,20,21,21,22,22,23,23,24,24,25,25,26,26,27,27,28,28,29,29,30,30],"right_children":[2,4,6,8,10,12,14,16,18,20,22,24,26,28,30,-1,32,34,36,38,40,42,44,46,48,50,52,54,56,58,60,-1,-1,-1,-1,-1,-1,-1,-1,-1,-1,-1,-1,-1,-1,-1,-1,-1,-1,-1,-1,-1,-1,-1,-1,-1,-1,-1,-1,-1,-1],"split_conditions":[2.675E1,1.157E1,5.499E1,6.44E0,1.747E1,3.524E1,8.621E1,5.36E0,7.1428573E-1,6E0,6E0,6.666667E-2,3E0,6.666667E-2,2.08E1,-9.204978E-2,6.25E-2,6.666667E-2,1.7166666E1,6.666667E-2,1.8E1,6.666667E-2,1.9E1,2.118E1,1.8181819E-1,6.25E-2,4.543E1,6E0,5.875E1,3E0,2E0,-7.968384E-2,-5.9369702E-2,-6.112373E-2,-3.971268E-2,-6.1944176E-2,-7.9870254E-2,-6.773569E-2,-4.5170028E-2,-1.1596366E-2,-5.0814033E-2,-5.7036467E-2,-2.2506403E-2,1.9421062E-2,-3.5589363E-2,3.0705115E-2,-5.9416104E-2,1.3336702E-1,5.5339433E-2,5.2170467E-2,9.930861E-2,1.1297419E-1,1.4832729E-1,1.2951677E-1,2.8192654E-2,1.57038E-1,2.0294587E-1,1.66406E-1,3.211866E-1,3.1148992E-3,1.0042173E-1],"split_indices":[9,9,9,9,9,9,9,9,8,0,0,8,1,8,6,0,7,8,6,8,0,8,0,6,8,7,9,12,9,1,12,0,0,0,0,0,0,0,0,0,0,0,0,0,0,0,0,0,0,0,0,0,0,0,0,0,0,0,0,0,0],"split_type":[0,0,0,0,0,0,0,0,0,0,0,0,0,0,0,0,0,0,0,0,0,0,0,0,0,0,0,0,0,0,0,0,0,0,0,0,0,0,0,0,0,0,0,0,0,0,0,0,0,0,0,0,0,0,0,0,0,0,0,0,0],"sum_hessian":[3.99E3,2.868E3,1.122E3,1.679E3,1.189E3,8E2,3.22E2,9.88E2,6.91E2,6.14E2,5.75E2,3.65E2,4.35E2,2.49E2,7.3E1,7.79E2,2.09E2,5.97E2,9.4E1,8.9E1,5.25E2,3.9E1,5.36E2,8.8E1,2.77E2,1.35E2,3E2,3E1,2.19E2,6.8E1,5E0,1.8E2,2.9E1,3.64E2,2.33E2,5.1E1,4.3E1,4.4E1,4.5E1,4.4E2,8.5E1,1.6E1,2.3E1,5.05E2,3.1E1,8.2E1,6E0,2.3E1,2.54E2,7.1E1,6.4E1,1.82E2,1.18E2,2.4E1,6E0,5.8E1,1.61E2,1.1E1,5.7E1,2E0,3E0],"tree_param":{"num_deleted":"0","num_feature":"15","num_nodes":"61","size_leaf_vector":"1"}},{"base_weights":[7.338061E-3,-5.37753E-1,1.5280674E0,-8.5817176E-1,3.04113E-1,2.8373082E0,1.7009957E-1,-1.4470503E0,-6.2469435E-1,-4.6126324E-1,8.411724E-1,5.6099358E0,2.4670959E0,1.1090375E0,-5.9153116E-1,-1.5595207E0,-1.2485217E0,-1.672563E-1,-1.410565E0,2.837555E-1,-6.6424066E-1,2.2661808E0,1.8088806E-1,3.4192672E-1,2.40693E-1,2.274594E0,4.3347397E0,6.107169E-1,2.5190725E0,-1.6648003E-1,-1.6417617E0,-6.804836E-2,-8.020146E-2,-3.057138E-2,-8.234471E-2,-3.035611E-2,1.2971592E-2,-5.898192E-2,-7.874623E-2,-4.037661E-2,3.312362E-2,-2.4910685E-2,-6.970324E-2,1.6463561E-1,8.52051E-2,2.1955114E-2,-6.9739155E-2,1.649089E-1,9.000362E-2,1.8892615E-1,2.8962013E-1,2.59038E-2,1.5437178E-1,2.0361821E-1,1.0634835E-1,-2.6822511E-2,5.9552908E-2,-8.698877E-2,-6.743497E-2],"categories":[],"categories_nodes":[],"categories_segments":[],"categories_sizes":[],"default_left":[0,0,0,0,0,0,0,0,0,0,0,0,0,0,0,0,0,0,0,0,0,0,0,0,0,0,0,0,0,0,0,0,0,0,0,0,0,0,0,0,0,0,0,0,0,0,0,0,0,0,0,0,0,0,0,0,0,0,0],"id":4,"left_children":[1,3,5,7,9,11,13,15,17,19,21,23,25,27,29,31,33,35,37,39,41,43,45,-1,-1,47,49,51,53,55,57,-1,-1,-1,-1,-1,-1,-1,-1,-1,-1,-1,-1,-1,-1,-1,-1,-1,-1,-1,-1,-1,-1,-1,-1,-1,-1,-1,-1],"loss_changes":[3.2892104E3,7.882E2,1.8609858E3,2.900244E2,3.3169635E2,5.332632E2,3.689449E2,1.1450073E1,5.451062E2,5.054541E1,4.455818E2,2.7719849E1,1.5983618E2,1.6077359E2,1.2695115E2,1.1662598E0,5.5336853E1,1.8033565E2,1.9320923E1,3.0291782E1,3.1052132E1,8.093762E1,1.3284218E2,0E0,0E0,2.0291943E2,1.2976624E1,3.786509E1,2.788147E1,1.0309767E2,8.94165E-3,0E0,0E0,0E0,0E0,0E0,0E0,0E0,0E0,0E0,0E0,0E0,0E0,0E0,0E0,0E0,0E0,0E0,0E0,0E0,0E0,0E0,0E0,0E0,0E0,0E0,0E0,0E0,0E0],"parents":[2147483647,0,0,1,1,2,2,3,3,4,4,5,5,6,6,7,7,8,8,9,9,10,10,11,11,12,12,13,13,14,14,15,15,16,16,17,17,18,18,19,19,20,20,21,21,22,22,25,25,26,26,27,27,28,28,29,29,30,30],"right_children":[2,4,6,8,10,12,14,16,18,20,22,24,26,28,30,32,34,36,38,40,42,44,46,-1,-1,48,50,52,54,56,58,-1,-1,-1,-1,-1,-1,-1,-1,-1,-1,-1,-1,-1,-1,-1,-1,-1,-1,-1,-1,-1,-1,-1,-1,-1,-1,-1,-1],"split_conditions":[6.25E-2,4E0,3.3333334E-1,6E0,6.666667E-2,1.4285715E-1,5E-1,6.666667E-2,1.8E1,1E1,3E-1,1.1111111E-1,2.6666668E-1,3.6363637E-1,1E0,1E0,7.1428573E-1,6.666667E-2,2E1,8E0,1.8E1,1.875E-1,8.5714287E-1,3.4192672E-1,2.40693E-1,2E-1,3E-1,3.207498E0,4E-1,5.555556E-1,1E0,-6.804836E-2,-8.020146E-2,-3.057138E-2,-8.234471E-2,-3.035611E-2,1.2971592E-2,-5.898192E-2,-7.874623E-2,-4.037661E-2,3.312362E-2,-2.4910685E-2,-6.970324E-2,1.6463561E-1,8.52051E-2,2.1955114E-2,-6.9739155E-2,1.649089E-1,9.000362E-2,1.8892615E-1,2.8962013E-1,2.59038E-2,1.5437178E-1,2.0361821E-1,1.0634835E-1,-2.6822511E-2,5.9552908E-2,-8.698877E-2,-6.743497E-2],"split_indices":[7,10,7,0,8,7,7,8,0,0,8,7,7,7,7,0,8,8,0,0,0,8,8,0,0,7,7,14,7,7,4,0,0,0,0,0,0,0,0,0,0,0,0,0,0,0,0,0,0,0,0,0,0,0,0,0,0,0,0],"split_type":[0,0,0,0,0,0,0,0,0,0,0,0,0,0,0,0,0,0,0,0,0,0,0,0,0,0,0,0,0,0,0,0,0,0,0,0,0,0,0,0,0,0,0,0,0,0,0,0,0,0,0,0,0,0,0,0,0,0,0],"sum_hessian":[3.966E3,2.92E3,1.046E3,2.115E3,8.05E2,5.32E2,5.14E2,5.99E2,1.516E3,3.32E2,4.73E2,6.1E1,4.71E2,2.3E2,2.84E2,3.78E2,2.21E2,9.59E2,5.57E2,7.1E1,2.61E2,1.49E2,3.24E2,2.1E1,4E1,4.29E2,4.2E1,1.71E2,5.9E1,2.03E2,8.1E1,7.5E1,3.03E2,8.6E1,1.35E2,4.72E2,4.87E2,2.35E2,3.22E2,1.8E1,5.3E1,2.14E2,4.7E1,5.1E1,9.8E1,2.79E2,4.5E1,1.34E2,2.95E2,3.3E1,9E0,1.66E2,5E0,1E1,4.9E1,1.6E2,4.3E1,5.7E1,2.4E1],"tree_param":{"num_deleted":"0","num_feature":"15","num_nodes":"59","size_leaf_vector":"1"}},{"base_weights":[-1.2467371E-2,-8.881384E-1,2.1988657E0,-1.3827438E0,-1.4891744E-1,1.5720396E0,3.8531425E0,-1.625476E0,-1.0250659E0,-4.4704634E-1,1.8193938E-1,9.942217E-1,2.0823293E0,3.336656E0,5.2657633E0,-8.471651E-2,-1.4460231E0,-1.1489356E0,-8.7832266E-1,-6.6788095E-1,-2.9319143E-1,-1.3943477E-1,3.0640724E-1,5.823899E-1,1.1521189E0,1.6522936E0,2.4462128E0,2.419658E0,3.6776755E0,3.7165425E0,6.014096E0,-6.956773E-2,-8.0781125E-2,-6.1666507E-2,-5.165788E-2,-5.064119E-2,-3.6918297E-2,-2.9632816E-2,-6.161959E-2,7.4818707E-3,-3.196731E-2,-1.9316075E-2,4.087075E-3,9.385153E-3,3.478385E-2,7.009402E-3,5.7071704E-2,1.13972105E-1,5.3265322E-2,-7.5827152E-3,8.4012546E-2,1.0518676E-1,1.4482634E-1,4.548012E-2,1.2931116E-1,1.2544984E-1,1.9107847E-1,2.238307E-1,9.123724E-2,3.2550594E-1,1.2051016E-1],"categories":[],"categories_nodes":[],"categories_segments":[],"categories_sizes":[],"default_left":[0,0,0,0,0,0,0,0,0,0,0,0,0,0,0,0,0,0,0,0,0,0,0,0,0,0,0,0,0,0,0,0,0,0,0,0,0,0,0,0,0,0,0,0,0,0,0,0,0,0,0,0,0,0,0,0,0,0,0,0,0],"id":5,"left_children":[1,3,5,7,9,11,13,15,17,19,21,23,25,27,29,-1,31,33,35,37,39,41,43,45,47,49,51,53,55,57,59,-1,-1,-1,-1,-1,-1,-1,-1,-1,-1,-1,-1,-1,-1,-1,-1,-1,-1,-1,-1,-1,-1,-1,-1,-1,-1,-1,-1,-1,-1],"loss_changes":[7.693334E3,1.0403564E3,1.1625791E3,1.4636157E2,1.1272591E2,2.3941565E2,2.0787598E2,1.0079346E1,1.1569336E1,2.0224052E1,2.1723131E1,2.4429504E1,6.3871704E1,6.271289E1,7.15542E1,0E0,4.2236328E-1,2.3606262E0,5.2947693E0,9.716019E0,5.4665947E1,8.331613E0,1.793673E1,2.6785923E1,2.477835E1,1.0442383E1,2.984021E1,1.3996582E1,1.8158936E1,3.3530457E1,7.9052734E1,0E0,0E0,0E0,0E0,0E0,0E0,0E0,0E0,0E0,0E0,0E0,0E0,0E0,0E0,0E0,0E0,0E0,0E0,0E0,0E0,0E0,0E0,0E0,0E0,0E0,0E0,0E0,0E0,0E0,0E0],"parents":[2147483647,0,0,1,1,2,2,3,3,4,4,5,5,6,6,7,7,8,8,9,9,10,10,11,11,12,12,13,13,14,14,16,16,17,17,18,18,19,19,20,20,21,21,22,22,23,23,24,24,25,25,26,26,27,27,28,28,29,29,30,30],"right_children":[2,4,6,8,10,12,14,16,18,20,22,24,26,28,30,-1,32,34,36,38,40,42,44,46,48,50,52,54,56,58,60,-1,-1,-1,-1,-1,-1,-1,-1,-1,-1,-1,-1,-1,-1,-1,-1,-1,-1,-1,-1,-1,-1,-1,-1,-1,-1,-1,-1,-1,-1],"split_conditions":[2.626E1,1.157E1,5.499E1,6.44E0,1.747E1,3.524E1,8.621E1,4.97E0,9.09E0,6.666667E-2,2E0,6.666667E-2,4E0,3E0,5E0,-8.471651E-2,5.555556E-1,6.666667E-2,6.666667E-2,2.21E1,4.2857143E-1,6.666667E-2,2.376E1,4E0,1.8181819E-1,-3E-1,4.543E1,6.666667E-2,6.666667E-2,3.75E-1,4E0,-6.956773E-2,-8.0781125E-2,-6.1666507E-2,-5.165788E-2,-5.064119E-2,-3.6918297E-2,-2.9632816E-2,-6.161959E-2,7.4818707E-3,-3.196731E-2,-1.9316075E-2,4.087075E-3,9.385153E-3,3.478385E-2,7.009402E-3,5.7071704E-2,1.13972105E-1,5.3265322E-2,-7.5827152E-3,8.4012546E-2,1.0518676E-1,1.4482634E-1,4.548012E-2,1.2931116E-1,1.2544984E-1,1.9107847E-1,2.238307E-1,9.123724E-2,3.2550594E-1,1.2051016E-1],"split_indices":[9,9,9,9,9,9,9,9,9,8,1,8,1,1,1,0,8,8,8,6,8,8,9,1,8,6,9,8,8,8,11,0,0,0,0,0,0,0,0,0,0,0,0,0,0,0,0,0,0,0,0,0,0,0,0,0,0,0,0,0,0],"split_type":[0,0,0,0,0,0,0,0,0,0,0,0,0,0,0,0,0,0,0,0,0,0,0,0,0,0,0,0,0,0,0,0,0,0,0,0,0,0,0,0,0,0,0,0,0,0,0,0,0,0,0,0,0,0,0,0,0,0,0,0,0],"sum_hessian":[3.971E3,2.845E3,1.126E3,1.704E3,1.141E3,8.18E2,3.08E2,1.013E3,6.91E2,6E2,5.41E2,3.85E2,4.33E2,2.28E2,8E1,7.26E2,2.87E2,3.71E2,3.2E2,2.45E2,3.55E2,1.51E2,3.9E2,1.08E2,2.77E2,2.01E2,2.32E2,6.4E1,1.64E2,2.8E1,5.2E1,2.24E2,6.3E1,2.09E2,1.62E2,1.6E2,1.6E2,2.18E2,2.7E1,1.56E2,1.99E2,7.1E1,8E1,3E2,9E1,6.1E1,4.7E1,1.8E1,2.59E2,3E0,1.98E2,1.35E2,9.7E1,7E0,5.7E1,2E1,1.44E2,1.9E1,9E0,4.5E1,7E0],"tree_param":{"num_deleted":"0","num_feature":"15","num_nodes":"61","size_leaf_vector":"1"}},{"base_weights":[-2.8623876E-3,-8.797352E-1,1.938532E0,-1.3076391E0,-1.8575822E-1,1.186658E0,3.2329252E0,-1.5422409E0,-9.743656E-1,-4.4976076E-1,1.0305294E-1,8.9949864E-1,1.6651262E0,2.5225089E0,3.9941537E0,-8.0353014E-2,-1.3811328E0,-1.0284023E0,-6.729339E-1,-9.968513E-1,-3.666885E-1,-7.7988994E-1,1.9268195E-1,-8.7945515E-1,9.422768E-1,1.2818286E0,1.9977882E0,2.0491958E0,2.9194553E0,2.9655333E0,4.477371E0,-7.103212E-2,-5.4086853E-2,-4.8823126E-2,-6.834158E-2,-4.0953895E-3,-4.4816867E-2,-5.2967545E-2,-2.7982E-2,-1.3787578E-2,-3.863491E-2,-5.683532E-2,-2.5495565E-2,1.1579865E-2,-4.7824565E-2,-2.2612607E-2,-6.1564144E-2,4.9582954E-2,-3.240504E-2,4.1984566E-2,8.689148E-2,1.6016774E-1,8.969737E-2,1.0825445E-1,5.457863E-2,1.7113476E-1,1.0561428E-1,1.644896E-1,8.125081E-2,1.865608E-1,2.64517E-1],"categories":[],"categories_nodes":[],"categories_segments":[],"categories_sizes":[],"default_left":[0,0,0,0,0,0,0,0,0,0,0,0,0,0,0,0,0,0,0,0,0,0,0,0,0,0,0,0,0,0,0,0,0,0,0,0,0,0,0,0,0,0,0,0,0,0,0,0,0,0,0,0,0,0,0,0,0,0,0,0,0],"id":6,"left_children":[1,3,5,7,9,11,13,15,17,19,21,23,25,27,29,-1,31,33,35,37,39,41,43,45,47,49,51,53,55,57,59,-1,-1,-1,-1,-1,-1,-1,-1,-1,-1,-1,-1,-1,-1,-1,-1,-1,-1,-1,-1,-1,-1,-1,-1,-1,-1,-1,-1,-1,-1],"loss_changes":[6.7243096E3,8.0777295E2,1.192252E3,1.300852E2,7.926685E1,1.0553418E2,2.3382031E2,8.077148E0,1.0677246E1,2.4312767E1,3.948151E1,3.804178E1,3.454413E1,3.8357056E1,9.408423E1,0E0,1.8936768E0,9.036377E0,1.4318649E1,1.3472595E0,1.7250687E1,3.8516903E0,2.043517E1,1.2467718E0,3.8183136E1,2.6363647E1,3.20979E1,9.955627E0,4.3951538E1,2.5950623E1,6.821802E1,0E0,0E0,0E0,0E0,0E0,0E0,0E0,0E0,0E0,0E0,0E0,0E0,0E0,0E0,0E0,0E0,0E0,0E0,0E0,0E0,0E0,0E0,0E0,0E0,0E0,0E0,0E0,0E0,0E0,0E0],"parents":[2147483647,0,0,1,1,2,2,3,3,4,4,5,5,6,6,7,7,8,8,9,9,10,10,11,11,12,12,13,13,14,14,16,16,17,17,18,18,19,19,20,20,21,21,22,22,23,23,24,24,25,25,26,26,27,27,28,28,29,29,30,30],"right_children":[2,4,6,8,10,12,14,16,18,20,22,24,26,28,30,-1,32,34,36,38,40,42,44,46,48,50,52,54,56,58,60,-1,-1,-1,-1,-1,-1,-1,-1,-1,-1,-1,-1,-1,-1,-1,-1,-1,-1,-1,-1,-1,-1,-1,-1,-1,-1,-1,-1,-1,-1],"split_conditions":[2.376E1,1.157E1,4.602E1,6.44E0,1.686E1,3.524E1,6.124E1,4.97E0,6.25E-2,6E0,6E0,6E0,6.25E-2,6.25E-2,6.25E-2,-8.0353014E-2,6.25E-2,7.1428573E-1,3.6363637E-1,6.25E-2,1.8E1,6.666667E-2,2E1,2.9583333E0,1.9E1,4E0,1.6666667E-1,3.1794176E0,3.846154E-1,1.2E1,5E0,-7.103212E-2,-5.4086853E-2,-4.8823126E-2,-6.834158E-2,-4.0953895E-3,-4.4816867E-2,-5.2967545E-2,-2.7982E-2,-1.3787578E-2,-3.863491E-2,-5.683532E-2,-2.5495565E-2,1.1579865E-2,-4.7824565E-2,-2.2612607E-2,-6.1564144E-2,4.9582954E-2,-3.240504E-2,4.1984566E-2,8.689148E-2,1.6016774E-1,8.969737E-2,1.0825445E-1,5.457863E-2,1.7113476E-1,1.0561428E-1,1.644896E-1,8.125081E-2,1.865608E-1,2.64517E-1],"split_indices":[9,9,9,9,9,9,9,9,7,0,0,0,7,7,7,0,7,8,7,7,0,8,0,13,0,1,7,14,8,0,1,0,0,0,0,0,0,0,0,0,0,0,0,0,0,0,0,0,0,0,0,0,0,0,0,0,0,0,0,0,0],"split_type":[0,0,0,0,0,0,0,0,0,0,0,0,0,0,0,0,0,0,0,0,0,0,0,0,0,0,0,0,0,0,0,0,0,0,0,0,0,0,0,0,0,0,0,0,0,0,0,0,0,0,0,0,0,0,0,0,0,0,0,0,0],"sum_hessian":[3.948E3,2.72E3,1.228E3,1.682E3,1.038E3,7.78E2,4.5E2,9.85E2,6.97E2,5.42E2,4.96E2,4.88E2,2.9E2,2.35E2,2.15E2,6.96E2,2.89E2,5.89E2,1.08E2,7E1,4.72E2,4.5E1,4.51E2,1.1E1,4.77E2,1.37E2,1.53E2,1.1E2,1.25E2,7.1E1,1.44E2,2.52E2,3.7E1,5.14E2,7.5E1,3E1,7.8E1,6E1,1E1,3.87E2,8.5E1,1.8E1,2.7E1,4.37E2,1.4E1,6E0,5E0,4.63E2,1.4E1,7.1E1,6.6E1,2E1,1.33E2,9.7E1,1.3E1,7.5E1,5E1,5.6E1,1.5E1,7.8E1,6.6E1],"tree_param":{"num_deleted":"0","num_feature":"15","num_nodes":"61","size_leaf_vector":"1"}},{"base_weights":[-5.1247184E-3,-7.7065104E-1,1.9857991E0,-1.2472303E0,-9.4753735E-2,1.3477614E0,3.14967E0,-1.4684547E0,-9.3036175E-1,-4.5524234E-1,1.744371E-1,9.8024666E-1,1.7125533E0,2.3543484E0,3.6468775E0,-7.5865634E-2,-1.2734842E0,-1.047892E0,-8.070854E-1,-1.0865717E0,-3.7688416E-1,-6.8995965E-1,2.5990617E-1,4.696573E-1,1.143112E0,1.3832603E0,2.0527587E0,1.5125445E0,2.5892274E0,2.9131844E0,4.5316253E0,-6.6429265E-2,-4.529694E-2,-5.756368E-2,-4.5508984E-2,-3.7566867E-2,-6.0173597E-2,-5.562966E-2,8.61516E-3,-1.4071596E-2,-4.049857E-2,-5.4520924E-2,-1.8522501E-2,8.087176E-3,3.144211E-2,2.9154554E-2,-5.9834607E-2,1.1378304E-1,5.0988384E-2,-5.798732E-2,7.156432E-2,1.4986126E-1,9.4506375E-2,-1.506132E-3,8.8116676E-2,2.129797E-1,1.1810436E-1,2.1917641E-1,1.2326709E-1,1.9666778E-1,2.8502297E-1],"categories":[],"categories_nodes":[],"categories_segments":[],"categories_sizes":[],"default_left":[0,0,0,0,0,0,0,0,0,0,0,0,0,0,0,0,0,0,0,0,0,0,0,0,0,0,0,0,0,0,0,0,0,0,0,0,0,0,0,0,0,0,0,0,0,0,0,0,0,0,0,0,0,0,0,0,0,0,0,0,0],"id":7,"left_children":[1,3,5,7,9,11,13,15,17,19,21,23,25,27,29,-1,31,33,35,37,39,41,43,45,47,49,51,53,55,57,59,-1,-1,-1,-1,-1,-1,-1,-1,-1,-1,-1,-1,-1,-1,-1,-1,-1,-1,-1,-1,-1,-1,-1,-1,-1,-1,-1,-1,-1,-1],"loss_changes":[6.102521E3,9.314492E2,8.2151855E2,1.17521484E2,1.1623657E2,9.484912E1,1.4682178E2,7.5649414E0,9.296387E0,2.4919037E1,5.0860443E1,2.948291E1,3.7490234E1,2.6532837E1,1.4259033E2,0E0,2.9683228E0,4.0062256E0,6.741623E0,2.0261383E0,1.8664032E1,7.5289803E0,2.2533127E1,1.7520592E1,3.5815643E1,2.437619E1,2.1214783E1,1.3925369E1,3.5088013E1,7.742993E1,5.2400635E1,0E0,0E0,0E0,0E0,0E0,0E0,0E0,0E0,0E0,0E0,0E0,0E0,0E0,0E0,0E0,0E0,0E0,0E0,0E0,0E0,0E0,0E0,0E0,0E0,0E0,0E0,0E0,0E0,0E0,0E0],"parents":[2147483647,0,0,1,1,2,2,3,3,4,4,5,5,6,6,7,7,8,8,9,9,10,10,11,11,12,12,13,13,14,14,16,16,17,17,18,18,19,19,20,20,21,21,22,22,23,23,24,24,25,25,26,26,27,27,28,28,29,29,30,30],"right_children":[2,4,6,8,10,12,14,16,18,20,22,24,26,28,30,-1,32,34,36,38,40,42,44,46,48,50,52,54,56,58,60,-1,-1,-1,-1,-1,-1,-1,-1,-1,-1,-1,-1,-1,-1,-1,-1,-1,-1,-1,-1,-1,-1,-1,-1,-1,-1,-1,-1,-1,-1],"split_conditions":[2.675E1,1.157E1,5.039E1,6.44E0,1.652E1,3.524E1,6.25E-2,5.36E0,9.09E0,5E0,6E0,6.666667E-2,6.25E-2,6.666667E-2,1E0,-7.5865634E-2,6.25E-2,6.666667E-2,2E1,1E1,1.8E1,6.666667E-2,2.376E1,2.19E1,1.8181819E-1,6E0,1.6666667E-1,1.6329932E0,1.4285715E-1,1.3333334E-1,8.621E1,-6.6429265E-2,-4.529694E-2,-5.756368E-2,-4.5508984E-2,-3.7566867E-2,-6.0173597E-2,-5.562966E-2,8.61516E-3,-1.4071596E-2,-4.049857E-2,-5.4520924E-2,-1.8522501E-2,8.087176E-3,3.144211E-2,2.9154554E-2,-5.9834607E-2,1.1378304E-1,5.0988384E-2,-5.798732E-2,7.156432E-2,1.4986126E-1,9.4506375E-2,-1.506132E-3,8.8116676E-2,2.129797E-1,1.1810436E-1,2.1917641E-1,1.2326709E-1,1.9666778E-1,2.8502297E-1],"split_indices":[9,9,9,9,9,9,7,9,9,0,0,8,7,8,3,0,7,8,0,12,0,8,9,6,8,0,7,14,8,7,9,0,0,0,0,0,0,0,0,0,0,0,0,0,0,0,0,0,0,0,0,0,0,0,0,0,0,0,0,0,0],"split_type":[0,0,0,0,0,0,0,0,0,0,0,0,0,0,0,0,0,0,0,0,0,0,0,0,0,0,0,0,0,0,0,0,0,0,0,0,0,0,0,0,0,0,0,0,0,0,0,0,0,0,0,0,0,0,0,0,0,0,0,0,0],"sum_hessian":[4.002E3,2.891E3,1.111E3,1.695E3,1.196E3,7.19E2,3.92E2,9.96E2,6.99E2,5.11E2,6.85E2,3.6E2,3.59E2,1.53E2,2.39E2,7.91E2,2.05E2,3.54E2,3.45E2,5.5E1,4.56E2,6.1E1,6.24E2,8.8E1,2.72E2,1.85E2,1.74E2,3.5E1,1.18E2,1.33E2,1.06E2,1.76E2,2.9E1,1.98E2,1.56E2,3.05E2,4E1,5.4E1,1E0,3.75E2,8.1E1,2.6E1,3.5E1,4.94E2,1.3E2,8.3E1,5E0,2.5E1,2.47E2,3E0,1.82E2,2.3E1,1.51E2,5E0,3E1,1.2E1,1.06E2,2.9E1,1.04E2,7.3E1,3.3E1],"tree_param":{"num_deleted":"0","num_feature":"15","num_nodes":"61","size_leaf_vector":"1"}},{"base_weights":[6.322622E-3,-7.6450396E-1,1.8534169E0,-1.1885917E0,-1.483588E-1,1.3688638E0,3.3565059E0,-1.3949565E0,-8.8414735E-1,-4.2994967E-1,1.1502419E-1,9.3219334E-1,1.9098791E0,2.4075663E0,3.8232987E0,-7.2728805E-2,-1.2323898E0,-9.9149734E-1,-7.6128656E-1,-5.407838E-1,-3.945655E-2,-6.260669E-1,1.8416294E-1,-9.256278E-1,9.7632897E-1,1.5523143E0,2.2543187E0,7.7319366E-1,2.5260932E0,2.9214436E-1,3.564731E0,-6.342248E-2,-4.6584945E-2,-4.6560775E-2,-6.568088E-2,3.800641E-4,-4.435661E-2,-4.983151E-2,-2.3167787E-2,4.0290598E-2,-1.5889777E-2,-5.0732076E-2,-1.818216E-2,1.0983889E-2,-4.3391842E-2,-5.311E-2,-8.092245E-3,5.310557E-2,1.1777654E-3,6.422233E-2,1.0403261E-1,1.2913333E-1,8.7516114E-2,-3.5996486E-2,5.446721E-2,1.3915406E-1,8.733008E-2,1.6409442E-1,2.4460192E-1],"categories":[],"categories_nodes":[],"categories_segments":[],"categories_sizes":[],"default_left":[0,0,0,0,0,0,0,0,0,0,0,0,0,0,0,0,0,0,0,0,0,0,0,0,0,0,0,0,0,0,0,0,0,0,0,0,0,0,0,0,0,0,0,0,0,0,0,0,0,0,0,0,0,0,0,0,0,0,0],"id":8,"left_children":[1,3,5,7,9,11,13,15,17,19,21,23,25,27,29,-1,31,33,35,37,39,41,43,45,47,49,51,53,55,-1,57,-1,-1,-1,-1,-1,-1,-1,-1,-1,-1,-1,-1,-1,-1,-1,-1,-1,-1,-1,-1,-1,-1,-1,-1,-1,-1,-1,-1],"loss_changes":[5.686608E3,7.36166E2,8.5191724E2,1.0362402E2,8.534062E1,2.0871423E2,1.17481445E2,7.831665E0,8.174194E0,2.4042336E1,3.0601974E1,4.149182E1,4.5394897E1,1.6837463E1,7.8389404E1,0E0,1.7782898E0,5.7283936E0,3.0970306E1,1.4821083E1,2.9429712E1,4.831564E0,2.0552713E1,1.0798254E0,3.9532898E1,2.5349426E1,2.8576782E1,4.5606637E0,1.3167786E1,0E0,4.81416E1,0E0,0E0,0E0,0E0,0E0,0E0,0E0,0E0,0E0,0E0,0E0,0E0,0E0,0E0,0E0,0E0,0E0,0E0,0E0,0E0,0E0,0E0,0E0,0E0,0E0,0E0,0E0,0E0],"parents":[2147483647,0,0,1,1,2,2,3,3,4,4,5,5,6,6,7,7,8,8,9,9,10,10,11,11,12,12,13,13,14,14,16,16,17,17,18,18,19,19,20,20,21,21,22,22,23,23,24,24,25,25,26,26,27,27,28,28,30,30],"right_children":[2,4,6,8,10,12,14,16,18,20,22,24,26,28,30,-1,32,34,36,38,40,42,44,46,48,50,52,54,56,-1,58,-1,-1,-1,-1,-1,-1,-1,-1,-1,-1,-1,-1,-1,-1,-1,-1,-1,-1,-1,-1,-1,-1,-1,-1,-1,-1,-1,-1],"split_conditions":[2.55E1,1.143E1,5.689E1,6.44E0,1.668E1,3.801E1,6.25E-2,4.97E0,6.666667E-2,6.25E-2,6E0,6E0,6.25E-2,5.35E0,1.1111111E-1,-7.2728805E-2,6.25E-2,2E1,3.6363637E-1,6E0,2.6666668E-1,6.666667E-2,2E1,5.555556E-1,6.25E-1,4.949E1,3.846154E-1,-1.3E0,1.2E1,2.9214436E-1,9.664E1,-6.342248E-2,-4.6584945E-2,-4.6560775E-2,-6.568088E-2,3.800641E-4,-4.435661E-2,-4.983151E-2,-2.3167787E-2,4.0290598E-2,-1.5889777E-2,-5.0732076E-2,-1.818216E-2,1.0983889E-2,-4.3391842E-2,-5.311E-2,-8.092245E-3,5.310557E-2,1.1777654E-3,6.422233E-2,1.0403261E-1,1.2913333E-1,8.7516114E-2,-3.5996486E-2,5.446721E-2,1.3915406E-1,8.733008E-2,1.6409442E-1,2.4460192E-1],"split_indices":[9,9,9,9,9,9,7,9,8,7,0,0,7,6,7,0,7,0,8,0,7,8,0,8,8,9,8,6,0,0,9,0,0,0,0,0,0,0,0,0,0,0,0,0,0,0,0,0,0,0,0,0,0,0,0,0,0,0,0],"split_type":[0,0,0,0,0,0,0,0,0,0,0,0,0,0,0,0,0,0,0,0,0,0,0,0,0,0,0,0,0,0,0,0,0,0,0,0,0,0,0,0,0,0,0,0,0,0,0,0,0,0,0,0,0,0,0,0,0,0,0],"sum_hessian":[3.992E3,2.817E3,1.175E3,1.668E3,1.149E3,8.9E2,2.85E2,9.92E2,6.76E2,5.55E2,5.94E2,4.94E2,3.96E2,9.6E1,1.89E2,7.2E2,2.72E2,3.57E2,3.19E2,4.32E2,1.23E2,5E1,5.44E2,1.1E1,4.83E2,1.97E2,1.99E2,7E0,8.9E1,1.9E1,1.7E2,2.4E2,3.2E1,3.04E2,5.3E1,4.5E1,2.74E2,6.1E1,3.71E2,3E1,9.3E1,1.9E1,3.1E1,5.27E2,1.7E1,9E0,2E0,4.43E2,4E1,1.33E2,6.4E1,1.18E2,8.1E1,1E0,6E0,6.5E1,2.4E1,1.43E2,2.7E1],"tree_param":{"num_deleted":"0","num_feature":"15","num_nodes":"59","size_leaf_vector":"1"}},{"base_weights":[1.7762575E-2,-7.1080446E-1,1.8106555E0,-1.1274554E0,-1.0204312E-1,1.0922352E0,2.821986E0,-1.3265744E0,-8.4264547E-1,-3.9099407E-1,1.5397081E-1,8.285007E-1,1.45369E0,2.4995039E0,4.5171633E0,-6.86698E-2,-1.1570948E0,-7.902908E-1,-1.1529832E0,-4.9269283E-1,-3.3918384E-2,-1.5410729E-1,3.1686726E-1,1.0136767E-1,9.1779965E-1,1.1231972E0,1.7879906E0,1.7878752E0,2.7672513E0,4.916787E0,1.7450987E0,-6.042477E-2,-4.3040574E-2,-4.667363E-2,-2.8050134E-2,-1.4367483E-2,-5.933809E-2,-2.1967312E-2,-4.818107E-2,3.3731114E-2,-1.2724823E-2,-4.7303885E-3,-5.6894094E-2,7.816916E-2,9.084941E-3,-1.2639152E-2,3.684652E-2,5.0231256E-2,4.192005E-3,3.711317E-2,7.204467E-2,7.454111E-2,1.03817284E-1,1.0469153E-1,5.8858026E-2,1.131132E-1,1.5566881E-1,1.8269013E-1,2.7834892E-1,1.367264E-1,5.4391386E-4],"categories":[],"categories_nodes":[],"categories_segments":[],"categories_sizes":[],"default_left":[0,0,0,0,0,0,0,0,0,0,0,0,0,0,0,0,0,0,0,0,0,0,0,0,0,0,0,0,0,0,0,0,0,0,0,0,0,0,0,0,0,0,0,0,0,0,0,0,0,0,0,0,0,0,0,0,0,0,0,0,0],"id":9,"left_children":[1,3,5,7,9,11,13,15,17,19,21,23,25,27,29,-1,31,33,35,37,39,41,43,45,47,49,51,53,55,57,59,-1,-1,-1,-1,-1,-1,-1,-1,-1,-1,-1,-1,-1,-1,-1,-1,-1,-1,-1,-1,-1,-1,-1,-1,-1,-1,-1,-1,-1,-1],"loss_changes":[5.1988267E3,7.1768884E2,8.3246216E2,9.415674E1,8.520598E1,6.3046814E1,2.4946826E2,6.24292E0,1.0364685E1,1.9629242E1,3.0711765E1,2.5360413E1,2.9258728E1,7.183862E1,7.450342E1,0E0,2.3101196E0,1.9075745E1,2.5244904E0,1.0153175E1,1.9082602E1,1.230158E1,6.711178E1,1.0090022E1,2.5186462E1,1.6478561E1,8.815399E0,1.8649445E1,4.3820312E1,3.3036133E1,1.8845024E1,0E0,0E0,0E0,0E0,0E0,0E0,0E0,0E0,0E0,0E0,0E0,0E0,0E0,0E0,0E0,0E0,0E0,0E0,0E0,0E0,0E0,0E0,0E0,0E0,0E0,0E0,0E0,0E0,0E0,0E0],"parents":[2147483647,0,0,1,1,2,2,3,3,4,4,5,5,6,6,7,7,8,8,9,9,10,10,11,11,12,12,13,13,14,14,16,16,17,17,18,18,19,19,20,20,21,21,22,22,23,23,24,24,25,25,26,26,27,27,28,28,29,29,30,30],"right_children":[2,4,6,8,10,12,14,16,18,20,22,24,26,28,30,-1,32,34,36,38,40,42,44,46,48,50,52,54,56,58,60,-1,-1,-1,-1,-1,-1,-1,-1,-1,-1,-1,-1,-1,-1,-1,-1,-1,-1,-1,-1,-1,-1,-1,-1,-1,-1,-1,-1,-1,-1],"split_conditions":[2.582E1,1.157E1,4.602E1,6.44E0,1.686E1,3.524E1,8.621E1,5.28E0,7.1428573E-1,6.25E-2,6.666667E-2,1E0,2.2246966E0,3E0,4E0,-6.86698E-2,6.25E-2,6.666667E-2,2.125E0,7.777778E-1,2.6666668E-1,3.6363637E-1,2.1428572E-1,6.25E-2,6.25E-1,6.25E-2,6.25E-2,3.846154E-1,6.25E-2,5E0,9.664E1,-6.042477E-2,-4.3040574E-2,-4.667363E-2,-2.8050134E-2,-1.4367483E-2,-5.933809E-2,-2.1967312E-2,-4.818107E-2,3.3731114E-2,-1.2724823E-2,-4.7303885E-3,-5.6894094E-2,7.816916E-2,9.084941E-3,-1.2639152E-2,3.684652E-2,5.0231256E-2,4.192005E-3,3.711317E-2,7.204467E-2,7.454111E-2,1.03817284E-1,1.0469153E-1,5.8858026E-2,1.131132E-1,1.5566881E-1,1.8269013E-1,2.7834892E-1,1.367264E-1,5.4391386E-4],"split_indices":[9,9,9,9,9,9,9,9,8,7,8,1,14,1,11,0,7,8,13,8,7,7,8,7,8,7,7,8,7,1,9,0,0,0,0,0,0,0,0,0,0,0,0,0,0,0,0,0,0,0,0,0,0,0,0,0,0,0,0,0,0],"split_type":[0,0,0,0,0,0,0,0,0,0,0,0,0,0,0,0,0,0,0,0,0,0,0,0,0,0,0,0,0,0,0,0,0,0,0,0,0,0,0,0,0,0,0,0,0,0,0,0,0,0,0,0,0,0,0,0,0,0,0,0,0],"sum_hessian":[3.978E3,2.829E3,1.149E3,1.679E3,1.15E3,6.73E2,4.76E2,9.86E2,6.93E2,5.4E2,6.1E2,3.91E2,2.82E2,4.02E2,7.4E1,7.67E2,2.19E2,5.96E2,9.7E1,4.2E2,1.2E2,2.11E2,3.99E2,4.3E1,3.48E2,1.44E2,1.38E2,1.12E2,2.9E2,6.4E1,1E1,1.84E2,3.5E1,3.65E2,2.31E2,4E0,9.3E1,3.79E2,4.1E1,2.8E1,9.2E1,2E2,1.1E1,3.8E1,3.61E2,2.8E1,1.5E1,3.15E2,3.3E1,6.7E1,7.7E1,7.1E1,6.7E1,7.3E1,3.9E1,1.21E2,1.69E2,2.4E1,4E1,6E0,4E0],"tree_param":{"num_deleted":"0","num_feature":"15","num_nodes":"61","size_leaf_vector":"1"}},{"base_weights":[-5.5881925E-3,-7.236458E-1,1.6147857E0,-1.1512879E0,-2.6300836E-1,9.841461E-1,2.6292992E0,-1.2932106E0,-9.328199E-1,-6.015874E-1,-3.523913E-2,7.391509E-1,1.394213E0,2.345249E0,4.026471E0,-6.576835E-2,-1.1723849E0,-8.86209E-1,-1.1583501E0,-7.502299E-1,-4.6414807E-1,-7.1689016E-1,4.808079E-2,2.6199314E-1,9.300863E-1,9.0785027E-1,1.6364304E0,1.8385775E0,2.7079968E0,2.459189E0,4.6897836E0,-6.267351E-2,-5.062863E-2,-4.9787853E-2,-3.1690154E-2,-6.0190465E-2,-3.9300036E-2,-3.465912E-2,-5.101607E-2,1.4455834E-3,-3.335125E-2,-4.8053913E-2,-2.564447E-2,-4.96689E-3,1.3131024E-2,-2.6286298E-3,3.5615575E-2,5.3460557E-2,-2.1384468E-3,-3.2620564E-2,5.0089028E-2,8.504357E-2,2.8283346E-2,9.39473E-2,8.549872E-3,2.1324642E-1,1.254311E-1,1.4552279E-1,5.6822002E-2,2.5784642E-1,1.4278649E-1],"categories":[],"categories_nodes":[],"categories_segments":[],"categories_sizes":[],"default_left":[0,0,0,0,0,0,0,0,0,0,0,0,0,0,0,0,0,0,0,0,0,0,0,0,0,0,0,0,0,0,0,0,0,0,0,0,0,0,0,0,0,0,0,0,0,0,0,0,0,0,0,0,0,0,0,0,0,0,0,0,0],"id":10,"left_children":[1,3,5,7,9,11,13,15,17,19,21,23,25,27,29,-1,31,33,35,37,39,41,43,45,47,49,51,53,55,57,59,-1,-1,-1,-1,-1,-1,-1,-1,-1,-1,-1,-1,-1,-1,-1,-1,-1,-1,-1,-1,-1,-1,-1,-1,-1,-1,-1,-1,-1,-1],"loss_changes":[4.592426E3,5.3845935E2,7.728408E2,4.2759644E1,1.0162019E2,7.421735E1,1.7470312E2,7.5219727E-1,4.8812866E0,1.0479324E1,4.484581E1,4.266736E1,3.138208E1,6.6333496E1,6.851587E1,0E0,5.708771E-1,1.2364655E1,6.279907E-1,3.1909637E0,2.7827747E1,3.7911263E0,2.2291594E1,1.9302492E1,4.5522766E1,1.4576355E1,1.1803101E1,1.0786072E1,5.8833374E1,1.1615265E1,3.0681885E1,0E0,0E0,0E0,0E0,0E0,0E0,0E0,0E0,0E0,0E0,0E0,0E0,0E0,0E0,0E0,0E0,0E0,0E0,0E0,0E0,0E0,0E0,0E0,0E0,0E0,0E0,0E0,0E0,0E0,0E0],"parents":[2147483647,0,0,1,1,2,2,3,3,4,4,5,5,6,6,7,7,8,8,9,9,10,10,11,11,12,12,13,13,14,14,16,16,17,17,18,18,19,19,20,20,21,21,22,22,23,23,24,24,25,25,26,26,27,27,28,28,29,29,30,30],"right_children":[2,4,6,8,10,12,14,16,18,20,22,24,26,28,30,-1,32,34,36,38,40,42,44,46,48,50,52,54,56,58,60,-1,-1,-1,-1,-1,-1,-1,-1,-1,-1,-1,-1,-1,-1,-1,-1,-1,-1,-1,-1,-1,-1,-1,-1,-1,-1,-1,-1,-1,-1],"split_conditions":[2.376E1,9.4E0,4.543E1,5.74E0,1.4E1,3.486E1,8.621E1,4.97E0,7.1428573E-1,6.666667E-2,6E0,6.666667E-2,3E0,6.25E-2,4E0,-6.576835E-2,6.666667E-2,6.666667E-2,6.25E-2,1.9E1,3.6363637E-1,6.666667E-2,1.913E1,4E0,6.25E-1,7E0,5.833333E-1,6.666667E-1,1.25E-1,3.75E-1,1E1,-6.267351E-2,-5.062863E-2,-4.9787853E-2,-3.1690154E-2,-6.0190465E-2,-3.9300036E-2,-3.465912E-2,-5.101607E-2,1.4455834E-3,-3.335125E-2,-4.8053913E-2,-2.564447E-2,-4.96689E-3,1.3131024E-2,-2.6286298E-3,3.5615575E-2,5.3460557E-2,-2.1384468E-3,-3.2620564E-2,5.0089028E-2,8.504357E-2,2.8283346E-2,9.39473E-2,8.549872E-3,2.1324642E-1,1.254311E-1,1.4552279E-1,5.6822002E-2,2.5784642E-1,1.4278649E-1],"split_indices":[9,9,9,9,9,9,9,9,8,8,0,8,1,7,1,0,8,8,7,0,8,8,9,1,8,0,8,8,7,8,0,0,0,0,0,0,0,0,0,0,0,0,0,0,0,0,0,0,0,0,0,0,0,0,0,0,0,0,0,0,0],"split_type":[0,0,0,0,0,0,0,0,0,0,0,0,0,0,0,0,0,0,0,0,0,0,0,0,0,0,0,0,0,0,0,0,0,0,0,0,0,0,0,0,0,0,0,0,0,0,0,0,0,0,0,0,0,0,0,0,0,0,0,0,0],"sum_hessian":[3.945E3,2.734E3,1.211E3,1.417E3,1.317E3,7.48E2,4.63E2,8.56E2,5.61E2,5.29E2,7.88E2,4.7E2,2.78E2,3.87E2,7.6E1,7.15E2,1.41E2,4.69E2,9.2E1,2.52E2,2.77E2,8.5E1,7.03E2,1.35E2,3.35E2,9.4E1,1.84E2,1.64E2,2.23E2,2.4E1,5.2E1,8.9E1,5.2E1,3.25E2,1.44E2,8E1,1.2E1,2.11E2,4.1E1,8.1E1,1.96E2,3.7E1,4.8E1,4.17E2,2.86E2,8E1,5.5E1,2.93E2,4.2E1,5E0,8.9E1,1.73E2,1.1E1,1.6E2,4E0,2.3E1,2E2,1.7E1,7E0,4E1,1.2E1],"tree_param":{"num_deleted":"0","num_feature":"15","num_nodes":"61","size_leaf_vector":"1"}},{"base_weights":[1.2481575E-2,-6.435194E-1,1.653343E0,-1.0108198E0,-1.0873507E-1,1.1619716E0,2.9509363E0,-1.1934636E0,-7.484751E-1,-3.3163303E-1,1.759271E-1,8.382213E-1,1.5792395E0,2.6086879E0,3.9022925E0,-6.1900098E-2,-1.028755E0,-7.0502114E-1,-1.0272369E0,-8.283582E-1,-2.4780048E-1,1.789538E-2,4.4856304E-1,8.671272E-1,-1.1769236E0,1.1368682E0,1.9350003E0,2.0421274E0,2.9306333E0,4.1004496E0,1.0984383E-1,-5.3111624E-2,-4.0915478E-2,-4.5927435E-2,-3.2206777E-2,-5.9351552E-2,-4.4228192E-2,-2.4410771E-2,-4.8005518E-2,-8.484396E-3,-3.274439E-2,-2.6379505E-2,4.3128147E-3,6.1523505E-3,3.2888163E-2,3.3608906E-2,5.6616534E-2,-1.2100088E-2,-6.462052E-2,4.69526E-3,6.2132716E-2,8.269498E-2,1.1127102E-1,-4.0062547E-2,1.0422534E-1,9.8258354E-2,1.6275714E-1,1.5693048E-1,2.3135734E-1,3.1831328E-2,-2.2677677E-2],"categories":[],"categories_nodes":[],"categories_segments":[],"categories_sizes":[],"default_left":[0,0,0,0,0,0,0,0,0,0,0,0,0,0,0,0,0,0,0,0,0,0,0,0,0,0,0,0,0,0,0,0,0,0,0,0,0,0,0,0,0,0,0,0,0,0,0,0,0,0,0,0,0,0,0,0,0,0,0,0,0],"id":11,"left_children":[1,3,5,7,9,11,13,15,17,19,21,23,25,27,29,-1,31,33,35,37,39,41,43,45,47,49,51,53,55,57,59,-1,-1,-1,-1,-1,-1,-1,-1,-1,-1,-1,-1,-1,-1,-1,-1,-1,-1,-1,-1,-1,-1,-1,-1,-1,-1,-1,-1,-1,-1],"loss_changes":[4.262558E3,5.555807E2,7.1769727E2,7.946118E1,7.32169E1,1.097207E2,9.07561E1,5.966919E0,7.6460266E0,2.6736946E1,2.1836134E1,2.8106567E1,5.41416E1,3.6150024E1,5.9669556E1,0E0,6.5252686E-1,7.2217712E0,1.024643E0,3.6990128E0,1.7537117E1,1.2052852E1,1.2585297E1,2.2969696E1,4.430313E-1,1.7756912E1,1.2401978E1,1.2153748E1,3.9032104E1,2.397876E1,1.7726842E0,0E0,0E0,0E0,0E0,0E0,0E0,0E0,0E0,0E0,0E0,0E0,0E0,0E0,0E0,0E0,0E0,0E0,0E0,0E0,0E0,0E0,0E0,0E0,0E0,0E0,0E0,0E0,0E0,0E0,0E0],"parents":[2147483647,0,0,1,1,2,2,3,3,4,4,5,5,6,6,7,7,8,8,9,9,10,10,11,11,12,12,13,13,14,14,16,16,17,17,18,18,19,19,20,20,21,21,22,22,23,23,24,24,25,25,26,26,27,27,28,28,29,29,30,30],"right_children":[2,4,6,8,10,12,14,16,18,20,22,24,26,28,30,-1,32,34,36,38,40,42,44,46,48,50,52,54,56,58,60,-1,-1,-1,-1,-1,-1,-1,-1,-1,-1,-1,-1,-1,-1,-1,-1,-1,-1,-1,-1,-1,-1,-1,-1,-1,-1,-1,-1,-1,-1],"split_conditions":[2.626E1,1.157E1,5.499E1,6.44E0,1.791E1,3.801E1,8.621E1,5.36E0,2E1,6E0,4E0,2.535E1,4E0,6.25E-2,2.08E1,-6.1900098E-2,6.25E-2,5E0,1.4466666E1,1E0,1.8E1,6E0,2.054E1,6.25E-2,2.675E1,2E0,6.25E-2,-1.3E0,3E0,5E0,3E0,-5.3111624E-2,-4.0915478E-2,-4.5927435E-2,-3.2206777E-2,-5.9351552E-2,-4.4228192E-2,-2.4410771E-2,-4.8005518E-2,-8.484396E-3,-3.274439E-2,-2.6379505E-2,4.3128147E-3,6.1523505E-3,3.2888163E-2,3.3608906E-2,5.6616534E-2,-1.2100088E-2,-6.462052E-2,4.69526E-3,6.2132716E-2,8.269498E-2,1.1127102E-1,-4.0062547E-2,1.0422534E-1,9.8258354E-2,1.6275714E-1,1.5693048E-1,2.3135734E-1,3.1831328E-2,-2.2677677E-2],"split_indices":[9,9,9,9,9,9,9,9,0,0,10,6,1,7,6,0,7,0,6,0,0,0,9,7,9,10,7,6,1,1,11,0,0,0,0,0,0,0,0,0,0,0,0,0,0,0,0,0,0,0,0,0,0,0,0,0,0,0,0,0,0],"split_type":[0,0,0,0,0,0,0,0,0,0,0,0,0,0,0,0,0,0,0,0,0,0,0,0,0,0,0,0,0,0,0,0,0,0,0,0,0,0,0,0,0,0,0,0,0,0,0,0,0,0,0,0,0,0,0,0,0,0,0,0,0],"sum_hessian":[3.958E3,2.828E3,1.13E3,1.676E3,1.152E3,8.21E2,3.09E2,9.86E2,6.9E2,6.46E2,5.06E2,4.64E2,3.57E2,2.3E2,7.9E1,7.71E2,2.15E2,6E2,9E1,9.2E1,5.54E2,3.21E2,1.85E2,4.58E2,6E0,1.61E2,1.96E2,8.6E1,1.44E2,7.5E1,4E0,1.82E2,3.3E1,1.3E2,4.7E2,3.9E1,5.1E1,2.7E1,6.5E1,4.66E2,8.8E1,3.5E1,2.86E2,7.3E1,1.12E2,2.66E2,1.92E2,1E0,5E0,1.5E1,1.46E2,1.03E2,9.3E1,1E0,8.5E1,3.8E1,1.06E2,2.9E1,4.6E1,2E0,2E0],"tree_param":{"num_deleted":"0","num_feature":"15","num_nodes":"61","size_leaf_vector":"1"}},{"base_weights":[-1.23255225E-2,-5.950698E-1,1.5750487E0,-9.3932045E-1,-3.877059E-2,1.0627913E0,2.530423E0,-1.135062E0,-6.9241565E-1,-3.1985813E-1,1.4839828E-1,7.7925426E-1,1.4728198E0,2.196653E0,3.818413E0,-5.9208304E-2,-1.0116916E0,-7.397775E-1,-4.3747458E-1,-7.3281443E-1,-2.5958714E-1,-5.2957916E-1,2.1261844E-1,8.2382643E-1,-7.788505E-1,1.1276155E0,1.8376538E0,1.4870323E0,2.4788344E0,4.0536036E0,4.3811712E-1,-5.2023377E-2,-3.7313595E-2,-4.2305697E-2,-3.2682013E-2,4.306058E-3,-3.4404863E-2,-4.080639E-2,-1.6515817E-3,-1.0203269E-2,-3.6293387E-2,-4.7130724E-3,-3.5388887E-2,-1.6285928E-2,1.4901102E-2,-4.047748E-3,4.3570455E-2,-6.998654E-2,4.0642127E-2,-5.0013173E-2,5.8926947E-2,1.2597208E-1,8.419902E-2,8.479173E-3,7.912638E-2,1.0245887E-1,1.3680324E-1,1.2734966E-1,2.3026542E-1,-2.1921746E-2,4.9300093E-2],"categories":[],"categories_nodes":[],"categories_segments":[],"categories_sizes":[],"default_left":[0,0,0,0,0,0,0,0,0,0,0,0,0,0,0,0,0,0,0,0,0,0,0,0,0,0,0,0,0,0,0,0,0,0,0,0,0,0,0,0,0,0,0,0,0,0,0,0,0,0,0,0,0,0,0,0,0,0,0,0,0],"id":12,"left_children":[1,3,5,7,9,11,13,15,17,19,21,23,25,27,29,-1,31,33,35,37,39,41,43,45,47,49,51,53,55,57,59,-1,-1,-1,-1,-1,-1,-1,-1,-1,-1,-1,-1,-1,-1,-1,-1,-1,-1,-1,-1,-1,-1,-1,-1,-1,-1,-1,-1,-1,-1],"loss_changes":[3.6686943E3,5.5552356E2,5.185188E2,8.5820435E1,5.844549E1,7.9651855E1,1.5110254E2,4.8479004E0,9.275574E0,1.0860615E1,2.9153656E1,2.9323685E1,3.3569458E1,5.578589E1,5.785022E1,0E0,1.446106E0,5.5746765E0,1.6724829E1,3.2379093E0,9.922586E0,4.432516E0,2.8142374E1,1.737741E1,1.2996771E1,1.7215973E1,1.0006409E1,1.0677078E1,1.7713013E1,4.6454468E1,3.3137946E0,0E0,0E0,0E0,0E0,0E0,0E0,0E0,0E0,0E0,0E0,0E0,0E0,0E0,0E0,0E0,0E0,0E0,0E0,0E0,0E0,0E0,0E0,0E0,0E0,0E0,0E0,0E0,0E0,0E0,0E0],"parents":[2147483647,0,0,1,1,2,2,3,3,4,4,5,5,6,6,7,7,8,8,9,9,10,10,11,11,12,12,13,13,14,14,16,16,17,17,18,18,19,19,20,20,21,21,22,22,23,23,24,24,25,25,26,26,27,27,28,28,29,29,30,30],"right_children":[2,4,6,8,10,12,14,16,18,20,22,24,26,28,30,-1,32,34,36,38,40,42,44,46,48,50,52,54,56,58,60,-1,-1,-1,-1,-1,-1,-1,-1,-1,-1,-1,-1,-1,-1,-1,-1,-1,-1,-1,-1,-1,-1,-1,-1,-1,-1,-1,-1,-1,-1],"split_conditions":[2.705E1,1.226E1,5.039E1,6.44E0,1.668E1,3.801E1,8.621E1,4.97E0,6.25E-2,6E0,6E0,2.398E1,6.25E-2,3E0,2.08E1,-5.9208304E-2,6.25E-2,8.89E0,3.6363637E-1,7E0,1.9E1,1E0,1E0,5.1E0,4E0,6E0,1.6666667E-1,1.3077251E0,6.25E-2,5E0,2E0,-5.2023377E-2,-3.7313595E-2,-4.2305697E-2,-3.2682013E-2,4.306058E-3,-3.4404863E-2,-4.080639E-2,-1.6515817E-3,-1.0203269E-2,-3.6293387E-2,-4.7130724E-3,-3.5388887E-2,-1.6285928E-2,1.4901102E-2,-4.047748E-3,4.3570455E-2,-6.998654E-2,4.0642127E-2,-5.0013173E-2,5.8926947E-2,1.2597208E-1,8.419902E-2,8.479173E-3,7.912638E-2,1.0245887E-1,1.3680324E-1,1.2734966E-1,2.3026542E-1,-2.1921746E-2,4.9300093E-2],"split_indices":[9,9,9,9,9,9,9,9,7,0,0,6,7,1,6,0,7,9,7,12,0,0,1,6,12,0,7,14,7,1,12,0,0,0,0,0,0,0,0,0,0,0,0,0,0,0,0,0,0,0,0,0,0,0,0,0,0,0,0,0,0],"split_type":[0,0,0,0,0,0,0,0,0,0,0,0,0,0,0,0,0,0,0,0,0,0,0,0,0,0,0,0,0,0,0,0,0,0,0,0,0,0,0,0,0,0,0,0,0,0,0,0,0,0,0,0,0,0,0,0,0,0,0,0,0],"sum_hessian":[3.964E3,2.9E3,1.064E3,1.791E3,1.109E3,6.94E2,3.7E2,9.97E2,7.94E2,4.43E2,6.66E2,4.12E2,2.82E2,2.96E2,7.4E1,7.07E2,2.9E2,6.68E2,1.26E2,5.5E1,3.88E2,5.7E1,6.09E2,4.01E2,1.1E1,1.47E2,1.35E2,8.6E1,2.1E2,6.9E1,5E0,2.59E2,3.1E1,2.95E2,3.73E2,4.1E1,8.5E1,4.9E1,6E0,3.48E2,4E1,1.7E1,4E1,8.3E1,5.26E2,2E1,3.81E2,8E0,3E0,3E0,1.44E2,2.2E1,1.13E2,6E0,8E1,8.2E1,1.28E2,2E1,4.9E1,2E0,3E0],"tree_param":{"num_deleted":"0","num_feature":"15","num_nodes":"61","size_leaf_vector":"1"}},{"base_weights":[-1.6609842E-2,-6.326821E-1,1.3661661E0,-9.9009E-1,-2.4946046E-1,8.5855687E-1,2.4320278E0,-1.1215515E0,-8.161907E-1,-5.0211746E-1,-4.186331E-2,6.264405E-1,1.2173024E0,2.1207755E0,3.6271842E0,-5.6115467E-2,-1.2788576E-2,-8.8755107E-1,-7.153428E-1,-4.345577E-1,-8.9393884E-1,-5.75806E-1,1.3046006E-2,2.3431993E-1,7.69938E-1,6.554394E-1,1.3499053E0,1.3825012E0,2.3704236E0,1.0497917E0,3.8219755E0,-4.7082562E-2,-3.708191E-2,-2.6350802E-2,-5.032998E-2,-3.4749497E-2,-1.8036744E-2,-5.1870942E-2,-3.497072E-2,-5.5295616E-2,-2.2705141E-2,-3.761919E-3,1.0651751E-2,-8.563935E-3,2.7629761E-2,4.5166284E-2,2.941719E-4,3.9386924E-2,-5.3161867E-2,1.2529263E-1,6.322677E-2,4.8796248E-2,9.374532E-2,5.578948E-2,1.2643407E-1,1.4232849E-1,1.3795026E-2,2.236011E-1,1.4145194E-1],"categories":[],"categories_nodes":[],"categories_segments":[],"categories_sizes":[],"default_left":[0,0,0,0,0,0,0,0,0,0,0,0,0,0,0,0,0,0,0,0,0,0,0,0,0,0,0,0,0,0,0,0,0,0,0,0,0,0,0,0,0,0,0,0,0,0,0,0,0,0,0,0,0,0,0,0,0,0,0],"id":13,"left_children":[1,3,5,7,9,11,13,15,17,19,21,23,25,27,29,-1,-1,31,33,35,37,39,41,43,45,47,49,51,53,55,57,-1,-1,-1,-1,-1,-1,-1,-1,-1,-1,-1,-1,-1,-1,-1,-1,-1,-1,-1,-1,-1,-1,-1,-1,-1,-1,-1,-1],"loss_changes":[3.3803115E3,3.7572595E2,6.5960547E2,3.1547241E1,6.952883E1,6.835211E1,1.3887402E2,2.4176025E-1,3.790985E0,1.5441391E1,2.1380646E1,2.8291336E1,2.3329224E1,5.478003E1,3.6151978E1,0E0,0E0,2.111847E0,1.37308655E1,9.592926E0,1.7026138E0,3.8848648E0,1.1704239E1,1.7780252E1,3.7703415E1,1.5389832E1,2.2686249E1,1.4586655E1,4.3640503E1,8.948202E0,3.5112183E1,0E0,0E0,0E0,0E0,0E0,0E0,0E0,0E0,0E0,0E0,0E0,0E0,0E0,0E0,0E0,0E0,0E0,0E0,0E0,0E0,0E0,0E0,0E0,0E0,0E0,0E0,0E0,0E0],"parents":[2147483647,0,0,1,1,2,2,3,3,4,4,5,5,6,6,7,7,8,8,9,9,10,10,11,11,12,12,13,13,14,14,17,17,18,18,19,19,20,20,21,21,22,22,23,23,24,24,25,25,26,26,27,27,28,28,29,29,30,30],"right_children":[2,4,6,8,10,12,14,16,18,20,22,24,26,28,30,-1,-1,32,34,36,38,40,42,44,46,48,50,52,54,56,58,-1,-1,-1,-1,-1,-1,-1,-1,-1,-1,-1,-1,-1,-1,-1,-1,-1,-1,-1,-1,-1,-1,-1,-1,-1,-1,-1,-1],"split_conditions":[2.376E1,9.29E0,4.949E1,5.36E0,1.448E1,3.524E1,8.621E1,1.2E1,6.666667E-2,1.9E1,6E0,6.666667E-2,6.666667E-2,3E0,6.666667E-2,-5.6115467E-2,-1.2788576E-2,8.04E0,7.1428573E-1,6E0,6.666667E-2,2E0,5E0,3E0,6.25E-1,2.1233334E1,1.5384616E-1,5.875E1,6.666667E-2,3E0,9E0,-4.7082562E-2,-3.708191E-2,-2.6350802E-2,-5.032998E-2,-3.4749497E-2,-1.8036744E-2,-5.1870942E-2,-3.497072E-2,-5.5295616E-2,-2.2705141E-2,-3.761919E-3,1.0651751E-2,-8.563935E-3,2.7629761E-2,4.5166284E-2,2.941719E-4,3.9386924E-2,-5.3161867E-2,1.2529263E-1,6.322677E-2,4.8796248E-2,9.374532E-2,5.578948E-2,1.2643407E-1,1.4232849E-1,1.3795026E-2,2.236011E-1,1.4145194E-1],"split_indices":[9,9,9,9,9,9,9,10,8,0,0,8,8,1,8,0,0,9,8,0,8,1,1,1,8,6,8,9,8,10,0,0,0,0,0,0,0,0,0,0,0,0,0,0,0,0,0,0,0,0,0,0,0,0,0,0,0,0,0],"split_type":[0,0,0,0,0,0,0,0,0,0,0,0,0,0,0,0,0,0,0,0,0,0,0,0,0,0,0,0,0,0,0,0,0,0,0,0,0,0,0,0,0,0,0,0,0,0,0,0,0,0,0,0,0,0,0,0,0,0,0],"sum_hessian":[3.966E3,2.744E3,1.222E3,1.419E3,1.325E3,8.29E2,3.93E2,8.05E2,6.14E2,5.97E2,7.28E2,5.05E2,3.24E2,3.14E2,7.9E1,8.04E2,1E0,3.55E2,2.59E2,5.11E2,8.6E1,6.7E1,6.61E2,1.36E2,3.69E2,6.3E1,2.61E2,8.1E1,2.33E2,6E0,7.3E1,2.55E2,1E2,1.59E2,1E2,1.11E2,4E2,4.7E1,3.9E1,1.1E1,5.6E1,4.59E2,2.02E2,6E1,7.6E1,3.14E2,5.5E1,5.9E1,4E0,1.6E1,2.45E2,4.6E1,3.5E1,2.7E1,2.06E2,1E0,5E0,4.2E1,3.1E1],"tree_param":{"num_deleted":"0","num_feature":"15","num_nodes":"59","size_leaf_vector":"1"}},{"base_weights":[1.516742E-2,-5.235862E-1,1.4351928E0,-8.692603E-1,-4.6970833E-2,8.4977293E-1,2.1528041E0,-1.0213323E0,-6.48609E-1,-2.2911297E-1,2.3957051E-1,6.0247266E-1,1.1530466E0,1.8886892E0,3.2566056E0,-1.0711492E0,-8.990771E-1,-6.0361594E-1,-9.4903153E-1,-1.8316655E-1,-7.7176666E-1,3.1453982E-1,-5.0193655E-1,6.4295137E-1,-1.3976601E0,1.979633E0,8.3412224E-1,1.4089442E0,2.2320855E0,2.0606916E0,3.7327404E0,-5.3628504E-2,-1.9151596E-2,-4.2276453E-2,-5.276773E-2,-3.642736E-2,-2.5821615E-2,-4.8043385E-2,-1.4669256E-2,-1.970916E-2,-7.486836E-4,-4.5812998E-2,-2.1347553E-2,1.7821563E-2,-5.9068173E-2,-1.6983883E-2,-4.3136623E-2,-5.1048018E-2,3.384056E-2,-1.96015E-2,-8.607531E-2,1.2452266E-1,8.3720684E-2,1.2078287E-2,4.960541E-2,2.5448859E-2,7.7669896E-2,9.0827085E-2,1.280671E-1,1.387715E-1,4.8375946E-2,2.2139262E-1,1.3755056E-1],"categories":[],"categories_nodes":[],"categories_segments":[],"categories_sizes":[],"default_left":[0,0,0,0,0,0,0,0,0,0,0,0,0,0,0,0,0,0,0,0,0,0,0,0,0,0,0,0,0,0,0,0,0,0,0,0,0,0,0,0,0,0,0,0,0,0,0,0,0,0,0,0,0,0,0,0,0,0,0,0,0,0,0],"id":14,"left_children":[1,3,5,7,9,11,13,15,17,19,21,23,25,27,29,31,33,35,37,39,41,43,45,47,49,51,53,55,57,59,61,-1,-1,-1,-1,-1,-1,-1,-1,-1,-1,-1,-1,-1,-1,-1,-1,-1,-1,-1,-1,-1,-1,-1,-1,-1,-1,-1,-1,-1,-1,-1,-1],"loss_changes":[3.062457E3,4.7807404E2,4.6070532E2,5.5776855E1,6.3780407E1,4.490518E1,1.3786499E2,5.0908203E0,8.740295E0,1.848359E1,2.6563253E1,2.818309E1,7.005298E1,6.2917114E1,4.583313E1,2.7459717E-1,1.5679779E0,6.18071E0,4.0100098E-1,2.4483232E1,2.4985657E0,2.7492596E1,2.282812E0,1.9339447E1,1.6048031E0,7.5233765E0,1.8296219E1,2.1309967E1,2.7089478E1,1.9973366E1,3.2858032E1,0E0,0E0,0E0,0E0,0E0,0E0,0E0,0E0,0E0,0E0,0E0,0E0,0E0,0E0,0E0,0E0,0E0,0E0,0E0,0E0,0E0,0E0,0E0,0E0,0E0,0E0,0E0,0E0,0E0,0E0,0E0,0E0],"parents":[2147483647,0,0,1,1,2,2,3,3,4,4,5,5,6,6,7,7,8,8,9,9,10,10,11,11,12,12,13,13,14,14,15,15,16,16,17,17,18,18,19,19,20,20,21,21,22,22,23,23,24,24,25,25,26,26,27,27,28,28,29,29,30,30],"right_children":[2,4,6,8,10,12,14,16,18,20,22,24,26,28,30,32,34,36,38,40,42,44,46,48,50,52,54,56,58,60,62,-1,-1,-1,-1,-1,-1,-1,-1,-1,-1,-1,-1,-1,-1,-1,-1,-1,-1,-1,-1,-1,-1,-1,-1,-1,-1,-1,-1,-1,-1,-1,-1],"split_conditions":[2.705E1,1.157E1,4.543E1,6.44E0,1.913E1,6.25E-2,7.955E1,4.97E0,2E1,7.777778E-1,1.8E1,1.9E1,1.8181819E-1,4E0,4E0,1E0,5.555556E-1,8.55E0,1.143E1,6.666667E-2,1.588E1,1E0,5E0,6E0,3E0,1.6666667E-1,2E0,6.666667E-2,6.25E-2,3.3333334E-1,9E0,-5.3628504E-2,-1.9151596E-2,-4.2276453E-2,-5.276773E-2,-3.642736E-2,-2.5821615E-2,-4.8043385E-2,-1.4669256E-2,-1.970916E-2,-7.486836E-4,-4.5812998E-2,-2.1347553E-2,1.7821563E-2,-5.9068173E-2,-1.6983883E-2,-4.3136623E-2,-5.1048018E-2,3.384056E-2,-1.96015E-2,-8.607531E-2,1.2452266E-1,8.3720684E-2,1.2078287E-2,4.960541E-2,2.5448859E-2,7.7669896E-2,9.0827085E-2,1.280671E-1,1.387715E-1,4.8375946E-2,2.2139262E-1,1.3755056E-1],"split_indices":[9,9,9,9,9,7,9,9,0,8,0,0,7,1,1,5,8,9,9,8,9,8,11,0,11,7,1,8,7,8,0,0,0,0,0,0,0,0,0,0,0,0,0,0,0,0,0,0,0,0,0,0,0,0,0,0,0,0,0,0,0,0,0],"split_type":[0,0,0,0,0,0,0,0,0,0,0,0,0,0,0,0,0,0,0,0,0,0,0,0,0,0,0,0,0,0,0,0,0,0,0,0,0,0,0,0,0,0,0,0,0,0,0,0,0,0,0,0,0,0,0,0,0,0,0,0,0,0,0],"sum_hessian":[4.001E3,2.901E3,1.1E3,1.681E3,1.22E3,6.07E2,4.93E2,9.93E2,6.88E2,7.46E2,4.74E2,3.36E2,2.71E2,4E2,9.3E1,7E2,2.93E2,6.01E2,8.7E1,6.89E2,5.7E1,4.31E2,4.3E1,3.3E2,6E0,7.4E1,1.97E2,1.69E2,2.31E2,2.8E1,6.5E1,6.98E2,2E0,2.23E2,7E1,2.44E2,3.57E2,8.5E1,2E0,3.05E2,3.84E2,3.9E1,1.8E1,4.2E2,1.1E1,3.1E1,1.2E1,6E0,3.24E2,2E0,4E0,2.5E1,4.9E1,4.2E1,1.55E2,2.4E1,1.45E2,1.05E2,1.26E2,1.6E1,1.2E1,3.6E1,2.9E1],"tree_param":{"num_deleted":"0","num_feature":"15","num_nodes":"63","size_leaf_vector":"1"}},{"base_weights":[-1.3816281E-2,-5.0458306E-1,1.3933811E0,-7.7751535E-1,5.367056E-2,9.555688E-1,2.38169E0,-9.821004E-1,-5.6517667E-1,-2.2887194E-1,2.0472318E-1,6.44471E-1,1.2631185E0,1.8540584E0,2.946207E0,-5.161633E-2,-9.118127E-1,-6.712617E-1,-4.511346E-1,-1.727327E-1,-1.1100426E0,7.810571E-1,1.8891533E-3,2.0058776E-1,7.9390293E-1,9.067326E-1,1.5082709E0,2.1537993E0,1.2790357E0,3.4124877E0,2.2663221E0,-4.7545355E-2,-4.128855E-2,-3.142331E-2,-4.6289086E-2,5.876004E-3,-3.0042743E-2,-2.1048715E-2,4.0042071E-4,-3.08586E-2,-6.639798E-2,6.846444E-2,2.6292337E-2,-7.79758E-3,2.247602E-2,4.8716515E-2,-3.7723822E-3,1.02518596E-1,3.3891838E-2,5.0150752E-2,-6.919678E-4,6.675017E-2,9.595948E-2,3.488983E-2,1.18273966E-1,1.8692113E-2,7.510974E-2,1.4596632E-1,2.4593058E-1,2.0946039E-2,1.2251049E-1],"categories":[],"categories_nodes":[],"categories_segments":[],"categories_sizes":[],"default_left":[0,0,0,0,0,0,0,0,0,0,0,0,0,0,0,0,0,0,0,0,0,0,0,0,0,0,0,0,0,0,0,0,0,0,0,0,0,0,0,0,0,0,0,0,0,0,0,0,0,0,0,0,0,0,0,0,0,0,0,0,0],"id":15,"left_children":[1,3,5,7,9,11,13,15,17,19,21,23,25,27,29,-1,31,33,35,37,39,41,43,45,47,49,51,53,55,57,59,-1,-1,-1,-1,-1,-1,-1,-1,-1,-1,-1,-1,-1,-1,-1,-1,-1,-1,-1,-1,-1,-1,-1,-1,-1,-1,-1,-1,-1,-1],"loss_changes":[2.7375735E3,4.478437E2,4.412351E2,8.519824E1,4.1274567E1,6.7308716E1,8.80647E1,2.6031494E0,1.1444458E1,1.6479061E1,7.3645615E1,2.3454346E1,2.982306E1,2.5684265E1,3.9818848E1,0E0,6.510925E-1,4.875229E0,4.0171135E1,1.4271223E1,1.3285198E0,2.39001E1,3.3065735E1,1.9509321E1,3.7401917E1,1.3131836E1,1.2389618E1,3.1327484E1,1.13565445E1,5.0261353E1,2.0715302E1,0E0,0E0,0E0,0E0,0E0,0E0,0E0,0E0,0E0,0E0,0E0,0E0,0E0,0E0,0E0,0E0,0E0,0E0,0E0,0E0,0E0,0E0,0E0,0E0,0E0,0E0,0E0,0E0,0E0,0E0],"parents":[2147483647,0,0,1,1,2,2,3,3,4,4,5,5,6,6,7,7,8,8,9,9,10,10,11,11,12,12,13,13,14,14,16,16,17,17,18,18,19,19,20,20,21,21,22,22,23,23,24,24,25,25,26,26,27,27,28,28,29,29,30,30],"right_children":[2,4,6,8,10,12,14,16,18,20,22,24,26,28,30,-1,32,34,36,38,40,42,44,46,48,50,52,54,56,58,60,-1,-1,-1,-1,-1,-1,-1,-1,-1,-1,-1,-1,-1,-1,-1,-1,-1,-1,-1,-1,-1,-1,-1,-1,-1,-1,-1,-1,-1,-1],"split_conditions":[2.776E1,1.4E1,5.376E1,6.44E0,6.666667E-2,4E0,5E0,4.37E0,6.666667E-2,2E1,3E-1,6.666667E-2,3.583E1,3.846154E-1,6E0,-5.161633E-2,6.666667E-2,2E1,3.6363637E-1,1.1E1,1.637E1,2.1428572E-1,2.276E1,2.6666667E0,1.8181819E-1,6.25E-1,1.4E1,6.666667E-2,4.2857143E-1,9.664E1,6.666667E-2,-4.7545355E-2,-4.128855E-2,-3.142331E-2,-4.6289086E-2,5.876004E-3,-3.0042743E-2,-2.1048715E-2,4.0042071E-4,-3.08586E-2,-6.639798E-2,6.846444E-2,2.6292337E-2,-7.79758E-3,2.247602E-2,4.8716515E-2,-3.7723822E-3,1.02518596E-1,3.3891838E-2,5.0150752E-2,-6.919678E-4,6.675017E-2,9.595948E-2,3.488983E-2,1.18273966E-1,1.8692113E-2,7.510974E-2,1.4596632E-1,2.4593058E-1,2.0946039E-2,1.2251049E-1],"split_indices":[9,9,9,9,8,1,1,9,8,0,8,8,9,8,1,0,8,0,8,0,9,8,9,13,8,8,0,8,8,9,8,0,0,0,0,0,0,0,0,0,0,0,0,0,0,0,0,0,0,0,0,0,0,0,0,0,0,0,0,0,0],"split_type":[0,0,0,0,0,0,0,0,0,0,0,0,0,0,0,0,0,0,0,0,0,0,0,0,0,0,0,0,0,0,0,0,0,0,0,0,0,0,0,0,0,0,0,0,0,0,0,0,0,0,0,0,0,0,0,0,0,0,0,0,0],"sum_hessian":[3.962E3,2.938E3,1.024E3,1.973E3,9.65E2,7.11E2,3.13E2,1.003E3,9.7E2,3.36E2,6.29E2,3.55E2,3.56E2,1.64E2,1.49E2,5.77E2,4.26E2,5E2,4.7E2,3.17E2,1.9E1,1.63E2,4.66E2,9E1,2.65E2,1.47E2,2.09E2,1.06E2,5.8E1,8.6E1,6.3E1,2.86E2,1.4E2,4.31E2,6.9E1,9.8E1,3.72E2,1.33E2,1.84E2,7E0,1.2E1,4.8E1,1.15E2,3.45E2,1.21E2,2.3E1,6.7E1,2.1E1,2.44E2,1.33E2,1.4E1,1.5E2,5.9E1,1.4E1,9.2E1,1.2E1,4.6E1,6.7E1,1.9E1,6E0,5.7E1],"tree_param":{"num_deleted":"0","num_feature":"15","num_nodes":"61","size_leaf_vector":"1"}},{"base_weights":[-9.058524E-3,-4.7244966E-1,1.3200321E0,-7.3224914E-1,4.630675E-2,7.9320955E-1,1.9491603E0,-9.202001E-1,-5.42005E-1,-5.6167704E-1,1.0910249E-1,5.844186E-1,1.0564907E0,1.3544447E0,2.3429143E0,-9.6811426E-1,-8.000452E-1,-7.7563244E-1,-4.9655747E-1,-4.659028E-1,-9.874859E-1,-5.0386045E-2,3.174771E-1,6.4387363E-1,-8.4172285E-1,1.7492534E0,8.032704E-1,9.661358E-1,1.5766098E0,1.7600172E0,2.900927E0,-4.847243E-2,-1.679266E-2,-4.1634463E-2,-2.7510995E-2,-2.9826269E-2,-4.256853E-2,-2.1660224E-2,-3.6194943E-2,-3.312215E-2,1.217059E-3,-1.0629696E-2,-5.124862E-2,-2.2221223E-2,-2.5714547E-4,1.9118344E-2,-3.3860452E-2,2.3742845E-2,4.9808927E-2,3.926762E-2,-5.2137922E-2,1.1021149E-1,7.6405436E-2,2.1591533E-2,4.957912E-2,8.780923E-2,3.3234093E-2,7.0847124E-2,1.1044671E-1,8.060874E-2,1.8581937E-1,2.1308215E-1,1.3335752E-1],"categories":[],"categories_nodes":[],"categories_segments":[],"categories_sizes":[],"default_left":[0,0,0,0,0,0,0,0,0,0,0,0,0,0,0,0,0,0,0,0,0,0,0,0,0,0,0,0,0,0,0,0,0,0,0,0,0,0,0,0,0,0,0,0,0,0,0,0,0,0,0,0,0,0,0,0,0,0,0,0,0,0,0],"id":16,"left_children":[1,3,5,7,9,11,13,15,17,19,21,23,25,27,29,31,33,35,37,39,41,43,45,47,49,51,53,55,57,59,61,-1,-1,-1,-1,-1,-1,-1,-1,-1,-1,-1,-1,-1,-1,-1,-1,-1,-1,-1,-1,-1,-1,-1,-1,-1,-1,-1,-1,-1,-1,-1,-1],"loss_changes":[2.4395432E3,3.958612E2,3.378473E2,6.947681E1,3.7514675E1,3.0111176E1,1.0595068E2,4.8846436E0,9.967194E0,3.29183E0,2.9593689E1,2.7166428E1,4.1748566E1,1.46953125E1,8.564307E1,2.6324463E-1,1.8742523E0,1.621872E0,1.1482269E1,7.435276E0,2.4686527E-1,9.000619E0,2.5173302E1,1.7509682E1,5.0712337E0,3.1717072E0,1.2302086E1,1.5742294E1,8.783508E0,3.4212128E1,3.3486206E1,0E0,0E0,0E0,0E0,0E0,0E0,0E0,0E0,0E0,0E0,0E0,0E0,0E0,0E0,0E0,0E0,0E0,0E0,0E0,0E0,0E0,0E0,0E0,0E0,0E0,0E0,0E0,0E0,0E0,0E0,0E0,0E0],"parents":[2147483647,0,0,1,1,2,2,3,3,4,4,5,5,6,6,7,7,8,8,9,9,10,10,11,11,12,12,13,13,14,14,15,15,16,16,17,17,18,18,19,19,20,20,21,21,22,22,23,23,24,24,25,25,26,26,27,27,28,28,29,29,30,30],"right_children":[2,4,6,8,10,12,14,16,18,20,22,24,26,28,30,32,34,36,38,40,42,44,46,48,50,52,54,56,58,60,62,-1,-1,-1,-1,-1,-1,-1,-1,-1,-1,-1,-1,-1,-1,-1,-1,-1,-1,-1,-1,-1,-1,-1,-1,-1,-1,-1,-1,-1,-1,-1,-1],"split_conditions":[2.806E1,1.4E1,4.602E1,6.44E0,6E0,6.25E-2,6.25E-2,4.97E0,5E0,3.5833333E0,2.054E1,2.3E1,1.8181819E-1,4E0,6.124E1,1E0,6.25E-2,1E0,1.9E1,2.115762E0,2E0,2.4583333E0,4.1666666E-1,5E0,2.6666667E0,1.6666667E-1,3E0,2.5E0,1.915E1,4.1666665E0,1.1111111E-1,-4.847243E-2,-1.679266E-2,-4.1634463E-2,-2.7510995E-2,-2.9826269E-2,-4.256853E-2,-2.1660224E-2,-3.6194943E-2,-3.312215E-2,1.217059E-3,-1.0629696E-2,-5.124862E-2,-2.2221223E-2,-2.5714547E-4,1.9118344E-2,-3.3860452E-2,2.3742845E-2,4.9808927E-2,3.926762E-2,-5.2137922E-2,1.1021149E-1,7.6405436E-2,2.1591533E-2,4.957912E-2,8.780923E-2,3.3234093E-2,7.0847124E-2,1.1044671E-1,8.060874E-2,1.8581937E-1,2.1308215E-1,1.3335752E-1],"split_indices":[9,9,9,9,0,7,7,9,0,13,9,6,7,1,9,5,7,0,0,14,2,13,7,1,13,7,1,13,6,13,7,0,0,0,0,0,0,0,0,0,0,0,0,0,0,0,0,0,0,0,0,0,0,0,0,0,0,0,0,0,0,0,0],"split_type":[0,0,0,0,0,0,0,0,0,0,0,0,0,0,0,0,0,0,0,0,0,0,0,0,0,0,0,0,0,0,0,0,0,0,0,0,0,0,0,0,0,0,0,0,0,0,0,0,0,0,0,0,0,0,0,0,0,0,0,0,0,0,0],"sum_hessian":[3.959E3,2.936E3,1.023E3,1.956E3,9.8E2,5.58E2,4.65E2,9.82E2,9.74E2,9.1E1,8.89E2,3.13E2,2.45E2,1.87E2,2.78E2,6.97E2,2.85E2,1.56E2,8.18E2,7.6E1,1.5E1,5.04E2,3.85E2,3.01E2,1.2E1,6.4E1,1.81E2,7E1,1.17E2,1.38E2,1.4E2,6.95E2,2E0,2.5E2,3.5E1,4.9E1,1.07E2,6.42E2,1.76E2,5.4E1,2.2E1,1E0,1.4E1,5.1E1,4.53E2,3.62E2,2.3E1,2.05E2,9.6E1,1E0,1.1E1,1.8E1,4.6E1,6.2E1,1.19E2,1.8E1,5.2E1,9.6E1,2.1E1,1.3E2,8E0,1.8E1,1.22E2],"tree_param":{"num_deleted":"0","num_feature":"15","num_nodes":"63","size_leaf_vector":"1"}},{"base_weights":[-1.6719557E-2,-5.578489E-1,1.0079844E0,-8.1614083E-1,-2.6497018E-1,5.69693E-1,1.831472E0,-9.0253174E-1,-6.6191787E-1,-3.53297E-1,6.105467E-2,3.679136E-1,8.805351E-1,1.4613833E0,2.288005E0,-9.042345E-1,-3.0526316E-1,-6.9926924E-1,-4.2461875E-1,-3.14346E-1,-7.986348E-1,6.983132E-1,-1.7866178E-1,4.4165754E-1,-4.9813032E-1,1.7955784E0,6.3290435E-1,1.2946316E0,2.2883015E0,1.5548842E0,2.635739E0,-4.569444E-2,-3.790938E-2,-3.830586E-3,-2.4780437E-2,-3.2728255E-2,-4.4544984E-2,-1.4968479E-2,-4.5211595E-2,-2.4347957E-2,-6.117586E-3,-3.1548165E-2,-5.2431054E-2,6.3506775E-2,2.9187499E-2,-5.3726276E-3,-4.987627E-2,-2.7533604E-2,2.4973318E-2,-6.046255E-3,-4.2634662E-2,1.1359813E-1,7.680951E-2,3.7703667E-2,-5.19368E-3,6.876225E-2,1.5230549E-2,8.657712E-2,1.7199676E-1,5.6546416E-2,1.21423654E-1,1.1593111E-1,1.7827648E-1],"categories":[],"categories_nodes":[],"categories_segments":[],"categories_sizes":[],"default_left":[0,0,0,0,0,0,0,0,0,0,0,0,0,0,0,0,0,0,0,0,0,0,0,0,0,0,0,0,0,0,0,0,0,0,0,0,0,0,0,0,0,0,0,0,0,0,0,0,0,0,0,0,0,0,0,0,0,0,0,0,0,0,0],"id":17,"left_children":[1,3,5,7,9,11,13,15,17,19,21,23,25,27,29,31,33,35,37,39,41,43,45,47,49,51,53,55,57,59,61,-1,-1,-1,-1,-1,-1,-1,-1,-1,-1,-1,-1,-1,-1,-1,-1,-1,-1,-1,-1,-1,-1,-1,-1,-1,-1,-1,-1,-1,-1,-1,-1],"loss_changes":[2.1869453E3,1.9503174E2,4.90901E2,1.7669128E1,3.4894417E1,5.5560944E1,7.657349E1,6.148071E-1,4.09935E0,1.6280022E1,3.9689957E1,3.4835106E1,7.817108E1,3.344043E1,4.9437134E1,5.3808594E-1,1.3612172E-1,3.0748138E0,3.9342794E0,2.9037987E1,2.523941E0,3.909752E0,1.0913527E1,2.8957748E1,5.6478367E0,5.6539154E0,2.4807404E1,1.7298676E1,2.1614471E1,2.3178986E1,3.3307068E1,0E0,0E0,0E0,0E0,0E0,0E0,0E0,0E0,0E0,0E0,0E0,0E0,0E0,0E0,0E0,0E0,0E0,0E0,0E0,0E0,0E0,0E0,0E0,0E0,0E0,0E0,0E0,0E0,0E0,0E0,0E0,0E0],"parents":[2147483647,0,0,1,1,2,2,3,3,4,4,5,5,6,6,7,7,8,8,9,9,10,10,11,11,12,12,13,13,14,14,15,15,16,16,17,17,18,18,19,19,20,20,21,21,22,22,23,23,24,24,25,25,26,26,27,27,28,28,29,29,30,30],"right_children":[2,4,6,8,10,12,14,16,18,20,22,24,26,28,30,32,34,36,38,40,42,44,46,48,50,52,54,56,58,60,62,-1,-1,-1,-1,-1,-1,-1,-1,-1,-1,-1,-1,-1,-1,-1,-1,-1,-1,-1,-1,-1,-1,-1,-1,-1,-1,-1,-1,-1,-1,-1,-1],"split_conditions":[2.113E1,9E0,4.543E1,5.74E0,6.25E-2,6.25E-2,6.124E1,1E0,6.25E-2,7.777778E-1,2.6666668E-1,1.8E1,1.8181819E-1,1.4E1,6.25E-2,6.25E-2,1E0,7.1428573E-1,7.1428573E-1,6.666667E-2,1.675E1,2.2222222E-1,1E0,6E0,1.9E1,1.6666667E-1,4.4444445E-1,4E-1,1.93E1,7E0,9.664E1,-4.569444E-2,-3.790938E-2,-3.830586E-3,-2.4780437E-2,-3.2728255E-2,-4.4544984E-2,-1.4968479E-2,-4.5211595E-2,-2.4347957E-2,-6.117586E-3,-3.1548165E-2,-5.2431054E-2,6.3506775E-2,2.9187499E-2,-5.3726276E-3,-4.987627E-2,-2.7533604E-2,2.4973318E-2,-6.046255E-3,-4.2634662E-2,1.1359813E-1,7.680951E-2,3.7703667E-2,-5.19368E-3,6.876225E-2,1.5230549E-2,8.657712E-2,1.7199676E-1,5.6546416E-2,1.21423654E-1,1.1593111E-1,1.7827648E-1],"split_indices":[9,9,9,9,7,7,9,5,7,8,7,0,7,0,7,7,3,8,7,8,6,7,7,0,0,7,7,7,6,10,9,0,0,0,0,0,0,0,0,0,0,0,0,0,0,0,0,0,0,0,0,0,0,0,0,0,0,0,0,0,0,0,0],"split_type":[0,0,0,0,0,0,0,0,0,0,0,0,0,0,0,0,0,0,0,0,0,0,0,0,0,0,0,0,0,0,0,0,0,0,0,0,0,0,0,0,0,0,0,0,0,0,0,0,0,0,0,0,0,0,0,0,0,0,0,0,0,0,0],"sum_hessian":[3.942E3,2.58E3,1.362E3,1.37E3,1.21E3,8.9E2,4.72E2,8.75E2,4.95E2,9.52E2,2.58E2,5.41E2,3.49E2,2.63E2,2.09E2,8.72E2,3E0,4.26E2,6.9E1,8.77E2,7.5E1,7E1,1.88E2,4.99E2,4.2E1,7.3E1,2.76E2,2.21E2,4.2E1,6.9E1,1.4E2,8.13E2,5.9E1,2E0,1E0,3.49E2,7.7E1,5.6E1,1.3E1,4.61E2,4.16E2,4.7E1,2.8E1,1E1,6E1,1.74E2,1.4E1,2.7E1,4.72E2,2.1E1,2.1E1,2.3E1,5E1,2.37E2,3.9E1,2.04E2,1.7E1,3E1,1.2E1,4.8E1,2.1E1,1.07E2,3.3E1],"tree_param":{"num_deleted":"0","num_feature":"15","num_nodes":"63","size_leaf_vector":"1"}},{"base_weights":[-1.7965323E-3,-4.165178E-1,1.2398857E0,-7.0701283E-1,-2.9318877E-2,9.151552E-1,2.082295E0,-8.3922553E-1,-5.202188E-1,-1.6665547E-1,2.318104E-1,5.2885556E-1,1.1261597E0,1.5192958E0,2.4049783E0,-4.3507848E-2,-7.1396387E-1,-6.4907384E-1,-4.6025193E-1,-5.150145E-1,-1.15380794E-1,2.841448E-1,-7.8497356E-1,-8.5984766E-1,5.883188E-1,6.9866437E-1,1.3315823E0,1.3273064E0,2.259286E0,2.0309546E0,3.1436424E0,-1.3592104E-2,-3.6414694E-2,-3.8775258E-2,-3.0414304E-2,-3.202816E-2,-2.1175345E-2,-1.0732648E-2,-3.1389315E-2,-3.1984013E-3,-2.0085564E-2,-3.500056E-2,1.6227694E-2,4.6942355E-3,-4.927456E-2,-5.478807E-2,3.7482243E-2,-5.6138053E-3,3.3194188E-2,3.7380453E-2,-1.4401336E-2,5.8856685E-2,9.482198E-2,7.1248434E-2,1.7751933E-3,5.8069613E-2,1.2739122E-1,1.0552563E-1,3.3163648E-2,1.6420595E-1,-2.3982072E-2],"categories":[],"categories_nodes":[],"categories_segments":[],"categories_sizes":[],"default_left":[0,0,0,0,0,0,0,0,0,0,0,0,0,0,0,0,0,0,0,0,0,0,0,0,0,0,0,0,0,0,0,0,0,0,0,0,0,0,0,0,0,0,0,0,0,0,0,0,0,0,0,0,0,0,0,0,0,0,0,0,0],"id":18,"left_children":[1,3,5,7,9,11,13,15,17,19,21,23,25,27,29,-1,31,33,35,37,39,41,43,45,47,49,51,53,55,57,59,-1,-1,-1,-1,-1,-1,-1,-1,-1,-1,-1,-1,-1,-1,-1,-1,-1,-1,-1,-1,-1,-1,-1,-1,-1,-1,-1,-1,-1,-1],"loss_changes":[2.0608394E3,3.3741736E2,2.721975E2,4.189337E1,4.619381E1,5.8499878E1,4.6850464E1,3.2609863E0,5.2106476E0,1.5016102E1,2.3849506E1,2.1810669E1,4.016809E1,1.1776535E1,4.196399E1,0E0,1.0944824E0,6.83403E-1,2.9752274E0,3.523449E0,1.0823711E1,1.7049416E1,3.9695082E0,4.998147E0,1.32037735E1,7.6524887E0,2.5248718E1,1.0673019E1,3.3766708E0,1.1548523E1,3.0587463E1,0E0,0E0,0E0,0E0,0E0,0E0,0E0,0E0,0E0,0E0,0E0,0E0,0E0,0E0,0E0,0E0,0E0,0E0,0E0,0E0,0E0,0E0,0E0,0E0,0E0,0E0,0E0,0E0,0E0,0E0],"parents":[2147483647,0,0,1,1,2,2,3,3,4,4,5,5,6,6,7,7,8,8,9,9,10,10,11,11,12,12,13,13,14,14,16,16,17,17,18,18,19,19,20,20,21,21,22,22,23,23,24,24,25,25,26,26,27,27,28,28,29,29,30,30],"right_children":[2,4,6,8,10,12,14,16,18,20,22,24,26,28,30,-1,32,34,36,38,40,42,44,46,48,50,52,54,56,58,60,-1,-1,-1,-1,-1,-1,-1,-1,-1,-1,-1,-1,-1,-1,-1,-1,-1,-1,-1,-1,-1,-1,-1,-1,-1,-1,-1,-1,-1,-1],"split_conditions":[2.89E1,1.157E1,5.796E1,6.44E0,2.054E1,3E0,4E0,5.36E0,8.04E0,6E0,1.9E1,7E0,3.583E1,6E0,8.621E1,-4.3507848E-2,1.3290238E0,5E0,5E0,1E0,1.8E1,5E0,2E0,5E0,6.3333335E0,2.18E1,1.5E1,2.619603E0,2.4583333E0,8E0,2.05875E1,-1.3592104E-2,-3.6414694E-2,-3.8775258E-2,-3.0414304E-2,-3.202816E-2,-2.1175345E-2,-1.0732648E-2,-3.1389315E-2,-3.1984013E-3,-2.0085564E-2,-3.500056E-2,1.6227694E-2,4.6942355E-3,-4.927456E-2,-5.478807E-2,3.7482243E-2,-5.6138053E-3,3.3194188E-2,3.7380453E-2,-1.4401336E-2,5.8856685E-2,9.482198E-2,7.1248434E-2,1.7751933E-3,5.8069613E-2,1.2739122E-1,1.0552563E-1,3.3163648E-2,1.6420595E-1,-2.3982072E-2],"split_indices":[9,9,9,9,9,1,1,9,9,0,0,0,9,10,9,0,14,0,0,0,0,0,11,11,6,6,0,14,13,11,6,0,0,0,0,0,0,0,0,0,0,0,0,0,0,0,0,0,0,0,0,0,0,0,0,0,0,0,0,0,0],"split_type":[0,0,0,0,0,0,0,0,0,0,0,0,0,0,0,0,0,0,0,0,0,0,0,0,0,0,0,0,0,0,0,0,0,0,0,0,0,0,0,0,0,0,0,0,0,0,0,0,0,0,0,0,0,0,0,0,0,0,0,0,0],"sum_hessian":[4E3,2.999E3,1.001E3,1.713E3,1.286E3,7.24E2,2.77E2,1.001E3,7.12E2,8.43E2,4.43E2,2.57E2,4.67E2,1.03E2,1.74E2,7.98E2,2.03E2,2.23E2,4.89E2,1.07E2,7.36E2,4.22E2,2.1E1,1E1,2.47E2,1.53E2,3.14E2,8.4E1,1.9E1,1.18E2,5.6E1,7E0,1.96E2,5E1,1.73E2,8E1,4.09E2,3E1,7.7E1,6.25E2,1.11E2,1.6E1,4.06E2,4E0,1.7E1,9E0,1E0,2.4E1,2.23E2,1.46E2,7E0,2.49E2,6.5E1,7.8E1,6E0,5E0,1.4E1,1.11E2,7E0,5.4E1,2E0],"tree_param":{"num_deleted":"0","num_feature":"15","num_nodes":"61","size_leaf_vector":"1"}},{"base_weights":[5.114511E-3,-4.5348915E-1,1.0098828E0,-6.636524E-1,-5.7497382E-2,7.241272E-1,2.039313E0,-7.857313E-1,-4.8301718E-1,-2.4232766E-1,6.077824E-2,4.889642E-1,1.0504061E0,8.75831E-1,2.176824E0,-4.1454006E-2,-6.97299E-1,-4.381736E-1,-7.517363E-1,-2.0246312E-1,-1.3122957E0,7.177469E-1,-1.0898779E-1,5.581185E-1,-2.1894595E-1,8.081337E-1,1.258653E0,1.7040197E0,4.466471E-2,1.7259561E0,2.6245282E0,-3.221765E-2,-4.424804E-2,-2.3210153E-2,1.4286107E-2,-6.787685E-3,-3.8140457E-2,-3.0429438E-2,-7.736148E-3,-6.840687E-2,-1.6054887E-2,6.897497E-2,2.4330983E-2,-2.7009402E-3,-3.0552952E-2,7.845363E-3,3.6362886E-2,-1.5337159E-2,4.446786E-2,5.582562E-3,4.5169394E-2,-2.0052219E-2,6.499416E-2,1.8648406E-2,1.4110343E-1,2.4040518E-2,-3.8118992E-2,1.0717545E-1,6.5702826E-2,1.442367E-1,7.705869E-2],"categories":[],"categories_nodes":[],"categories_segments":[],"categories_sizes":[],"default_left":[0,0,0,0,0,0,0,0,0,0,0,0,0,0,0,0,0,0,0,0,0,0,0,0,0,0,0,0,0,0,0,0,0,0,0,0,0,0,0,0,0,0,0,0,0,0,0,0,0,0,0,0,0,0,0,0,0,0,0,0,0],"id":19,"left_children":[1,3,5,7,9,11,13,15,17,19,21,23,25,27,29,-1,31,33,35,37,39,41,43,45,47,49,51,53,55,57,59,-1,-1,-1,-1,-1,-1,-1,-1,-1,-1,-1,-1,-1,-1,-1,-1,-1,-1,-1,-1,-1,-1,-1,-1,-1,-1,-1,-1,-1,-1],"loss_changes":[1.8173546E3,2.2532947E2,3.6211182E2,3.8630066E1,2.056399E1,7.383649E1,4.097119E1,3.4623413E0,8.298645E0,1.5388248E1,6.4097E1,2.77818E1,1.9416107E1,2.0574764E1,4.3713623E1,0E0,2.9371643E0,1.1739685E1,5.8533096E-1,6.7887554E0,2.8024483E-1,1.7376698E1,1.2579436E1,3.483406E1,5.2354064E0,1.2504272E1,1.5302032E1,2.1270172E1,5.998384E0,1.8166046E1,2.8817688E1,0E0,0E0,0E0,0E0,0E0,0E0,0E0,0E0,0E0,0E0,0E0,0E0,0E0,0E0,0E0,0E0,0E0,0E0,0E0,0E0,0E0,0E0,0E0,0E0,0E0,0E0,0E0,0E0,0E0,0E0],"parents":[2147483647,0,0,1,1,2,2,3,3,4,4,5,5,6,6,7,7,8,8,9,9,10,10,11,11,12,12,13,13,14,14,16,16,17,17,18,18,19,19,20,20,21,21,22,22,23,23,24,24,25,25,26,26,27,27,28,28,29,29,30,30],"right_children":[2,4,6,8,10,12,14,16,18,20,22,24,26,28,30,-1,32,34,36,38,40,42,44,46,48,50,52,54,56,58,60,-1,-1,-1,-1,-1,-1,-1,-1,-1,-1,-1,-1,-1,-1,-1,-1,-1,-1,-1,-1,-1,-1,-1,-1,-1,-1,-1,-1,-1,-1],"split_conditions":[2.376E1,1.239E1,5.796E1,6.96E0,6.666667E-2,3.735E1,6.666667E-2,4.97E0,7.1428573E-1,2.45E1,2.6666668E-1,6.25E-1,4E0,2.315668E0,5E0,-4.1454006E-2,5.555556E-1,5.555556E-1,1.0826364E0,6E0,2.1E1,2.1428572E-1,1E0,6.666667E-2,2.25E1,2E0,1.587428E0,4E0,7.955E1,3.3333334E-1,4E0,-3.221765E-2,-4.424804E-2,-2.3210153E-2,1.4286107E-2,-6.787685E-3,-3.8140457E-2,-3.0429438E-2,-7.736148E-3,-6.840687E-2,-1.6054887E-2,6.897497E-2,2.4330983E-2,-2.7009402E-3,-3.0552952E-2,7.845363E-3,3.6362886E-2,-1.5337159E-2,4.446786E-2,5.582562E-3,4.5169394E-2,-2.0052219E-2,6.499416E-2,1.8648406E-2,1.4110343E-1,2.4040518E-2,-3.8118992E-2,1.0717545E-1,6.5702826E-2,1.442367E-1,7.705869E-2],"split_indices":[9,9,9,9,8,9,8,9,8,6,8,8,1,14,1,0,8,8,14,0,0,8,8,8,6,10,14,1,9,8,11,0,0,0,0,0,0,0,0,0,0,0,0,0,0,0,0,0,0,0,0,0,0,0,0,0,0,0,0,0,0],"split_type":[0,0,0,0,0,0,0,0,0,0,0,0,0,0,0,0,0,0,0,0,0,0,0,0,0,0,0,0,0,0,0,0,0,0,0,0,0,0,0,0,0,0,0,0,0,0,0,0,0,0,0,0,0,0,0,0,0,0,0,0,0],"sum_hessian":[3.942E3,2.707E3,1.235E3,1.768E3,9.39E2,9.68E2,2.67E2,1.053E3,7.15E2,3.66E2,5.73E2,5.64E2,4.04E2,2.9E1,2.38E2,7.01E2,3.52E2,6.15E2,1E2,3.54E2,1.2E1,1.17E2,4.56E2,5.14E2,5E1,1.89E2,2.15E2,1.4E1,1.5E1,1.21E2,1.17E2,2.78E2,7.4E1,5.94E2,2.1E1,2E0,9.8E1,3.6E1,3.18E2,1.1E1,1E0,2.9E1,8.8E1,4.12E2,4.4E1,1.53E2,3.61E2,4.7E1,3E0,2.3E1,1.66E2,5E0,2.1E2,7E0,7E0,1E1,5E0,5.8E1,6.3E1,9.3E1,2.4E1],"tree_param":{"num_deleted":"0","num_feature":"15","num_nodes":"61","size_leaf_vector":"1"}},{"base_weights":[1.632786E-2,-4.300838E-1,9.870379E-1,-6.408482E-1,-6.2137727E-2,7.028675E-1,2.006644E0,-7.639581E-1,-4.727086E-1,-5.1090556E-1,-6.9203326E-3,4.5872962E-1,1.0429462E0,1.3429064E0,2.315109E0,-3.9709598E-2,-6.849383E-1,-5.102267E-1,-2.5686133E-1,-4.2554602E-1,-8.9284295E-1,-1.7010024E-1,1.4355923E-1,5.235248E-1,-2.4618892E-1,3.2977587E-1,1.173909E0,1.6394514E-1,1.4900666E0,1.8731338E-1,2.0989633E0,-3.2052863E-2,-4.143473E-2,-2.8844276E-2,-2.0862147E-2,1.03248535E-2,-2.277725E-2,-3.462913E-2,-5.5676084E-3,-8.252037E-3,-4.8437923E-2,-6.2344773E-3,-2.668157E-2,1.3710241E-2,-3.250516E-4,4.6819854E-3,3.442224E-2,-2.2608356E-3,-3.9962456E-2,-5.2258085E-2,2.568683E-2,1.4250863E-1,5.4731917E-2,-4.9383182E-2,1.889362E-2,7.9333685E-2,2.5118112E-3,8.4372945E-2,1.2915908E-1],"categories":[],"categories_nodes":[],"categories_segments":[],"categories_sizes":[],"default_left":[0,0,0,0,0,0,0,0,0,0,0,0,0,0,0,0,0,0,0,0,0,0,0,0,0,0,0,0,0,0,0,0,0,0,0,0,0,0,0,0,0,0,0,0,0,0,0,0,0,0,0,0,0,0,0,0,0,0,0],"id":20,"left_children":[1,3,5,7,9,11,13,15,17,19,21,23,25,27,29,-1,31,33,35,37,39,41,43,45,47,49,51,53,55,-1,57,-1,-1,-1,-1,-1,-1,-1,-1,-1,-1,-1,-1,-1,-1,-1,-1,-1,-1,-1,-1,-1,-1,-1,-1,-1,-1,-1,-1],"loss_changes":[1.726403E3,2.1159402E2,3.6221582E2,3.5552734E1,2.4652357E1,8.113623E1,5.2784912E1,1.8450928E0,5.8292084E0,3.1736698E0,2.1804918E1,2.6346527E1,3.790631E1,1.5196884E1,4.936444E1,0E0,1.2602997E0,3.6393585E0,1.0312921E1,7.557892E0,8.898926E-1,6.9659567E0,9.059158E0,3.7227173E1,5.4101973E0,1.6977684E1,4.285608E1,3.0831761E0,1.0908997E1,0E0,2.8120056E1,0E0,0E0,0E0,0E0,0E0,0E0,0E0,0E0,0E0,0E0,0E0,0E0,0E0,0E0,0E0,0E0,0E0,0E0,0E0,0E0,0E0,0E0,0E0,0E0,0E0,0E0,0E0,0E0],"parents":[2147483647,0,0,1,1,2,2,3,3,4,4,5,5,6,6,7,7,8,8,9,9,10,10,11,11,12,12,13,13,14,14,16,16,17,17,18,18,19,19,20,20,21,21,22,22,23,23,24,24,25,25,26,26,27,27,28,28,30,30],"right_children":[2,4,6,8,10,12,14,16,18,20,22,24,26,28,30,-1,32,34,36,38,40,42,44,46,48,50,52,54,56,-1,58,-1,-1,-1,-1,-1,-1,-1,-1,-1,-1,-1,-1,-1,-1,-1,-1,-1,-1,-1,-1,-1,-1,-1,-1,-1,-1,-1,-1],"split_conditions":[2.376E1,1.199E1,5.796E1,6.44E0,6E0,3.801E1,6.25E-2,4.97E0,6.25E-2,7.1428573E-1,1.686E1,6.25E-1,6.666667E-2,6.1375E0,1.1111111E-1,-3.9709598E-2,5.555556E-1,6.666667E-2,3.6363637E-1,6.666667E-2,1.265E1,1.9E1,2.6666668E-1,6.666667E-2,8.333333E-1,7E0,1.4285715E-1,-1.3E0,2.23E1,1.8731338E-1,5E0,-3.2052863E-2,-4.143473E-2,-2.8844276E-2,-2.0862147E-2,1.03248535E-2,-2.277725E-2,-3.462913E-2,-5.5676084E-3,-8.252037E-3,-4.8437923E-2,-6.2344773E-3,-2.668157E-2,1.3710241E-2,-3.250516E-4,4.6819854E-3,3.442224E-2,-2.2608356E-3,-3.9962456E-2,-5.2258085E-2,2.568683E-2,1.4250863E-1,5.4731917E-2,-4.9383182E-2,1.889362E-2,7.9333685E-2,2.5118112E-3,8.4372945E-2,1.2915908E-1],"split_indices":[9,9,9,9,0,9,7,9,7,8,9,8,8,6,7,0,8,8,7,8,9,0,8,8,8,0,8,6,6,0,1,0,0,0,0,0,0,0,0,0,0,0,0,0,0,0,0,0,0,0,0,0,0,0,0,0,0,0,0],"split_type":[0,0,0,0,0,0,0,0,0,0,0,0,0,0,0,0,0,0,0,0,0,0,0,0,0,0,0,0,0,0,0,0,0,0,0,0,0,0,0,0,0,0,0,0,0,0,0,0,0,0,0,0,0,0,0,0,0,0,0],"sum_hessian":[3.982E3,2.728E3,1.254E3,1.734E3,9.94E2,9.82E2,2.72E2,9.99E2,7.35E2,1.08E2,8.86E2,5.73E2,4.09E2,8.8E1,1.84E2,7.16E2,2.83E2,6.25E2,1.1E2,9E1,1.8E1,4.25E2,4.61E2,5.25E2,4.8E1,6.4E1,3.45E2,1E1,7.8E1,2.2E1,1.62E2,2.21E2,6.2E1,3.61E2,2.64E2,3.3E1,7.7E1,4.8E1,4.2E1,2E0,1.6E1,3.79E2,4.6E1,2.46E2,2.15E2,1.46E2,3.79E2,3.6E1,1.2E1,7E0,5.7E1,1.4E1,3.31E2,1E0,9E0,7.3E1,5E0,9E1,7.2E1],"tree_param":{"num_deleted":"0","num_feature":"15","num_nodes":"59","size_leaf_vector":"1"}},{"base_weights":[-1.8140068E-3,-4.2813793E-1,8.6800706E-1,-6.14638E-1,-1.06522486E-1,5.128728E-1,1.5216074E0,-7.1863216E-1,-4.6225968E-1,-7.4731685E-2,-6.766682E-1,3.2956553E-1,7.6013273E-1,1.3380834E0,2.492757E0,-7.452145E-1,-6.152379E-1,-4.1832325E-1,-6.330278E-1,-4.82047E-1,-3.1508483E-2,-8.4546787E-1,-5.761381E-2,3.7298757E-1,-1.0500678E0,1.6476854E0,5.092752E-1,9.7975093E-1,1.571179E0,3.2130077E0,1.6601276E0,-3.819127E-2,-3.526808E-2,-3.22656E-2,-2.3418516E-2,-2.998975E-2,-1.8353721E-2,-3.2543175E-2,6.1362297E-3,-1.0401392E-2,-3.253626E-2,-8.974975E-3,4.155092E-3,-2.4751721E-2,-5.694768E-2,9.727958E-3,-4.3949287E-2,7.7334777E-3,3.1620506E-2,-6.0234245E-2,-1.5018821E-3,1.0529115E-1,6.8192564E-2,1.9850727E-2,5.666467E-2,6.77807E-2,3.4500625E-2,7.2356336E-2,1.2094381E-1,1.7893873E-1,3.633752E-2,4.728743E-2,1.1804483E-1],"categories":[],"categories_nodes":[],"categories_segments":[],"categories_sizes":[],"default_left":[0,0,0,0,0,0,0,0,0,0,0,0,0,0,0,0,0,0,0,0,0,0,0,0,0,0,0,0,0,0,0,0,0,0,0,0,0,0,0,0,0,0,0,0,0,0,0,0,0,0,0,0,0,0,0,0,0,0,0,0,0,0,0],"id":21,"left_children":[1,3,5,7,9,11,13,15,17,19,21,23,25,27,29,31,33,35,37,39,41,43,45,47,49,51,53,55,57,59,61,-1,-1,-1,-1,-1,-1,-1,-1,-1,-1,-1,-1,-1,-1,-1,-1,-1,-1,-1,-1,-1,-1,-1,-1,-1,-1,-1,-1,-1,-1,-1,-1],"loss_changes":[1.4554911E3,1.5792532E2,2.9888123E2,2.6083801E1,1.7494808E1,3.773146E1,7.758057E1,2.259735E0,4.8296967E0,1.6146635E1,5.280596E0,2.9326492E1,7.842401E1,3.0534546E1,3.7244843E1,4.1259766E-2,6.164627E-1,4.8298416E0,1.9265442E0,3.9320831E0,1.4109755E1,3.550068E0,2.6565483E0,2.646476E1,2.329525E0,7.270691E0,1.9094757E1,1.583551E1,2.079126E1,3.104654E1,1.5288704E1,0E0,0E0,0E0,0E0,0E0,0E0,0E0,0E0,0E0,0E0,0E0,0E0,0E0,0E0,0E0,0E0,0E0,0E0,0E0,0E0,0E0,0E0,0E0,0E0,0E0,0E0,0E0,0E0,0E0,0E0,0E0,0E0],"parents":[2147483647,0,0,1,1,2,2,3,3,4,4,5,5,6,6,7,7,8,8,9,9,10,10,11,11,12,12,13,13,14,14,15,15,16,16,17,17,18,18,19,19,20,20,21,21,22,22,23,23,24,24,25,25,26,26,27,27,28,28,29,29,30,30],"right_children":[2,4,6,8,10,12,14,16,18,20,22,24,26,28,30,32,34,36,38,40,42,44,46,48,50,52,54,56,58,60,62,-1,-1,-1,-1,-1,-1,-1,-1,-1,-1,-1,-1,-1,-1,-1,-1,-1,-1,-1,-1,-1,-1,-1,-1,-1,-1,-1,-1,-1,-1,-1,-1],"split_conditions":[2.297E1,1.157E1,4.602E1,6.44E0,2E1,6.25E-2,8.621E1,5.36E0,1.9E1,5E0,2.118E1,1.9E1,1.8181819E-1,4E0,9E0,4.19E0,3.5833333E0,5E0,4.5E0,1E0,3E0,2.2778072E0,3.625E0,4E0,6E0,1.6666667E-1,4.207E1,9E0,1.5E1,1.9766666E1,3.6666667E0,-3.819127E-2,-3.526808E-2,-3.22656E-2,-2.3418516E-2,-2.998975E-2,-1.8353721E-2,-3.2543175E-2,6.1362297E-3,-1.0401392E-2,-3.253626E-2,-8.974975E-3,4.155092E-3,-2.4751721E-2,-5.694768E-2,9.727958E-3,-4.3949287E-2,7.7334777E-3,3.1620506E-2,-6.0234245E-2,-1.5018821E-3,1.0529115E-1,6.8192564E-2,1.9850727E-2,5.666467E-2,6.77807E-2,3.4500625E-2,7.2356336E-2,1.2094381E-1,1.7893873E-1,3.633752E-2,4.728743E-2,1.1804483E-1],"split_indices":[9,9,9,9,0,7,9,9,0,0,6,0,7,1,0,9,13,0,13,0,1,14,13,1,1,7,9,0,0,6,13,0,0,0,0,0,0,0,0,0,0,0,0,0,0,0,0,0,0,0,0,0,0,0,0,0,0,0,0,0,0,0,0],"split_type":[0,0,0,0,0,0,0,0,0,0,0,0,0,0,0,0,0,0,0,0,0,0,0,0,0,0,0,0,0,0,0,0,0,0,0,0,0,0,0,0,0,0,0,0,0,0,0,0,0,0,0,0,0,0,0,0,0,0,0,0,0,0,0],"sum_hessian":[3.923E3,2.633E3,1.29E3,1.666E3,9.67E2,8.37E2,4.53E2,9.88E2,6.78E2,9.17E2,5E1,4.82E2,3.55E2,3.83E2,7E1,7.81E2,2.07E2,5.42E2,1.36E2,8.7E1,8.3E2,3.9E1,1.1E1,4.68E2,1.4E1,7.7E1,2.78E2,1.53E2,2.3E2,3.6E1,3.4E1,5.2E2,2.61E2,1.69E2,3.8E1,1.17E2,4.25E2,1.33E2,3E0,3.4E1,5.3E1,3.62E2,4.68E2,1.9E1,2E1,9E0,2E0,2.55E2,2.13E2,1.2E1,2E0,2.7E1,5E1,2.37E2,4.1E1,6.5E1,8.8E1,2.03E2,2.7E1,3.1E1,5E0,1.8E1,1.6E1],"tree_param":{"num_deleted":"0","num_feature":"15","num_nodes":"63","size_leaf_vector":"1"}},{"base_weights":[1.5345992E-2,-3.5103443E-1,9.937107E-1,-5.3867954E-1,4.623336E-2,7.56018E-1,1.8922946E0,-6.528538E-1,-3.4390044E-1,7.9764664E-2,-6.9428766E-1,5.0935346E-1,1.0341709E0,1.1067944E0,2.2348285E0,-7.055164E-1,-5.5806136E-1,-3.0622926E-1,-6.5548056E-1,-1.5025216E-1,2.1688181E-1,-8.6519897E-1,-2.2339469E-1,-1.0066864E0,5.493606E-1,1.843274E0,8.9393073E-1,1.3127524E0,1.02766715E-1,1.8873923E0,3.1548364E0,-3.539883E-2,-1.8903846E-2,-2.5963306E-2,-3.6003675E-2,-1.982619E-2,-1.1113017E-2,-1.5276054E-2,-3.5458904E-2,-5.4727257E-3,-4.474852E-2,6.250568E-2,5.921956E-3,-3.381826E-2,-5.7817336E-2,-2.9866815E-2,1.2505149E-2,-6.2508225E-2,4.17893E-2,2.8894484E-2,-6.530385E-2,1.1549001E-1,7.353527E-2,4.686023E-2,-1.3666227E-2,7.81415E-2,2.4583703E-2,3.718003E-2,-1.9535227E-2,1.4574836E-1,7.9217546E-2,9.3439095E-2,1.8762326E-1],"categories":[],"categories_nodes":[],"categories_segments":[],"categories_sizes":[],"default_left":[0,0,0,0,0,0,0,0,0,0,0,0,0,0,0,0,0,0,0,0,0,0,0,0,0,0,0,0,0,0,0,0,0,0,0,0,0,0,0,0,0,0,0,0,0,0,0,0,0,0,0,0,0,0,0,0,0,0,0,0,0,0,0],"id":22,"left_children":[1,3,5,7,9,11,13,15,17,19,21,23,25,27,29,31,33,35,37,39,41,43,45,47,49,51,53,55,57,59,61,-1,-1,-1,-1,-1,-1,-1,-1,-1,-1,-1,-1,-1,-1,-1,-1,-1,-1,-1,-1,-1,-1,-1,-1,-1,-1,-1,-1,-1,-1,-1,-1],"loss_changes":[1.4130149E3,2.1382104E2,2.2796167E2,4.3096558E1,2.2924393E1,5.7860687E1,5.779602E1,5.7314453E0,8.273804E0,2.7850208E1,3.025959E0,2.8028542E1,4.3626343E1,1.4340218E1,4.3590393E1,3.6468506E-1,2.4104767E0,4.809803E0,1.2303123E0,9.928349E0,5.6099842E1,8.122635E-1,2.2741213E0,6.4280863E0,2.4151596E1,6.6841125E0,1.7531158E1,1.1140945E1,4.401558E0,3.1192413E1,2.449936E1,0E0,0E0,0E0,0E0,0E0,0E0,0E0,0E0,0E0,0E0,0E0,0E0,0E0,0E0,0E0,0E0,0E0,0E0,0E0,0E0,0E0,0E0,0E0,0E0,0E0,0E0,0E0,0E0,0E0,0E0,0E0,0E0],"parents":[2147483647,0,0,1,1,2,2,3,3,4,4,5,5,6,6,7,7,8,8,9,9,10,10,11,11,12,12,13,13,14,14,15,15,16,16,17,17,18,18,19,19,20,20,21,21,22,22,23,23,24,24,25,25,26,26,27,27,28,28,29,29,30,30],"right_children":[2,4,6,8,10,12,14,16,18,20,22,24,26,28,30,32,34,36,38,40,42,44,46,48,50,52,54,56,58,60,62,-1,-1,-1,-1,-1,-1,-1,-1,-1,-1,-1,-1,-1,-1,-1,-1,-1,-1,-1,-1,-1,-1,-1,-1,-1,-1,-1,-1,-1,-1,-1,-1],"split_conditions":[2.705E1,1.4E1,6.124E1,8.04E0,1E0,6.25E-2,6.25E-2,5.36E0,2E1,6.666667E-2,3E0,6E0,1.6666667E-1,5E0,9.664E1,8E0,7.1428573E-1,6.666667E-2,8.79E0,3.6363637E-1,2.1428572E-1,1.2E1,6.25E-2,9E0,1.9E1,1.3333334E-1,7.5E-1,1.2E1,2.2198055E0,1.25E-1,5E0,-3.539883E-2,-1.8903846E-2,-2.5963306E-2,-3.6003675E-2,-1.982619E-2,-1.1113017E-2,-1.5276054E-2,-3.5458904E-2,-5.4727257E-3,-4.474852E-2,6.250568E-2,5.921956E-3,-3.381826E-2,-5.7817336E-2,-2.9866815E-2,1.2505149E-2,-6.2508225E-2,4.17893E-2,2.8894484E-2,-6.530385E-2,1.1549001E-1,7.353527E-2,4.686023E-2,-1.3666227E-2,7.81415E-2,2.4583703E-2,3.718003E-2,-1.9535227E-2,1.4574836E-1,7.9217546E-2,9.3439095E-2,1.8762326E-1],"split_indices":[9,9,9,9,8,7,7,9,0,8,10,0,7,12,9,10,8,8,9,7,8,0,7,2,0,7,8,0,14,7,1,0,0,0,0,0,0,0,0,0,0,0,0,0,0,0,0,0,0,0,0,0,0,0,0,0,0,0,0,0,0,0,0],"split_type":[0,0,0,0,0,0,0,0,0,0,0,0,0,0,0,0,0,0,0,0,0,0,0,0,0,0,0,0,0,0,0,0,0,0,0,0,0,0,0,0,0,0,0,0,0,0,0,0,0,0,0,0,0,0,0,0,0,0,0,0,0,0,0],"sum_hessian":[3.94E3,2.867E3,1.073E3,1.947E3,9.2E2,8.5E2,2.23E2,1.226E3,7.21E2,8.81E2,3.9E1,4.52E2,3.98E2,6.9E1,1.54E2,7.84E2,4.42E2,6.45E2,7.6E1,3.29E2,5.52E2,2.8E1,1.1E1,1.1E1,4.41E2,5.7E1,3.41E2,5.7E1,1.2E1,1.14E2,4E1,7.77E2,7E0,3.6E2,8.2E1,3.09E2,3.36E2,1.1E1,6.5E1,3.13E2,1.6E1,4.7E1,5.05E2,1.9E1,9E0,6E0,5E0,1E1,1E0,4.35E2,6E0,2.3E1,3.4E1,3.29E2,1.2E1,4.3E1,1.4E1,5E0,7E0,2.4E1,9E1,1.4E1,2.6E1],"tree_param":{"num_deleted":"0","num_feature":"15","num_nodes":"63","size_leaf_vector":"1"}},{"base_weights":[8.554879E-3,-3.1734785E-1,9.5811E-1,-5.188609E-1,5.8028407E-2,7.2598714E-1,1.7423974E0,-6.185955E-1,-3.4440285E-1,8.439704E-2,-9.7156584E-1,5.7020557E-1,1.0278298E0,1.277292E0,2.1658518E0,-6.645221E-1,-5.131629E-1,-3.939744E-1,-1.06641755E-1,-5.0825123E-2,2.708436E-1,-1.2261838E0,-5.723295E-1,3.7960538E-1,8.031682E-1,1.1190946E0,-3.9396223E-2,-1.06951565E-1,1.412723E0,2.4091754E0,7.455961E-1,-3.4588665E-2,-3.0060297E-2,-2.4028597E-2,-3.325221E-2,-1.7786983E-2,-3.30197E-2,1.2237949E-2,-1.8809943E-2,-7.2470917E-3,1.17548155E-2,1.5663683E-2,-2.1113284E-2,-6.366263E-2,-1.4180529E-2,-8.478439E-3,-4.734144E-2,2.1195216E-2,-3.8924303E-2,6.780286E-2,2.7700994E-2,4.9735107E-2,1.0456077E-1,-2.6058922E-2,6.661097E-2,7.3440365E-2,-3.1016052E-2,9.332274E-2,5.475065E-2,8.956972E-2,1.5469979E-1,5.285762E-2,-6.342106E-2],"categories":[],"categories_nodes":[],"categories_segments":[],"categories_sizes":[],"default_left":[0,0,0,0,0,0,0,0,0,0,0,0,0,0,0,0,0,0,0,0,0,0,0,0,0,0,0,0,0,0,0,0,0,0,0,0,0,0,0,0,0,0,0,0,0,0,0,0,0,0,0,0,0,0,0,0,0,0,0,0,0,0,0],"id":23,"left_children":[1,3,5,7,9,11,13,15,17,19,21,23,25,27,29,31,33,35,37,39,41,43,45,47,49,51,53,55,57,59,61,-1,-1,-1,-1,-1,-1,-1,-1,-1,-1,-1,-1,-1,-1,-1,-1,-1,-1,-1,-1,-1,-1,-1,-1,-1,-1,-1,-1,-1,-1,-1,-1],"loss_changes":[1.2341315E3,2.246148E2,1.84245E2,3.3402832E1,2.8262651E1,3.6466858E1,4.2926147E1,5.6051636E0,8.267242E0,2.5553223E1,1.9411869E0,2.2873337E1,2.6049957E1,2.1335129E1,3.9673584E1,1.0541687E0,1.546524E0,5.7037964E0,1.1742953E1,1.5857147E1,1.26603775E1,3.0438042E-1,1.6494505E0,1.5156345E1,3.1482544E1,2.7667297E1,1.5232363E1,9.809544E0,1.2804184E1,3.7610474E1,1.3263028E1,0E0,0E0,0E0,0E0,0E0,0E0,0E0,0E0,0E0,0E0,0E0,0E0,0E0,0E0,0E0,0E0,0E0,0E0,0E0,0E0,0E0,0E0,0E0,0E0,0E0,0E0,0E0,0E0,0E0,0E0,0E0,0E0],"parents":[2147483647,0,0,1,1,2,2,3,3,4,4,5,5,6,6,7,7,8,8,9,9,10,10,11,11,12,12,13,13,14,14,15,15,16,16,17,17,18,18,19,19,20,20,21,21,22,22,23,23,24,24,25,25,26,26,27,27,28,28,29,29,30,30],"right_children":[2,4,6,8,10,12,14,16,18,20,22,24,26,28,30,32,34,36,38,40,42,44,46,48,50,52,54,56,58,60,62,-1,-1,-1,-1,-1,-1,-1,-1,-1,-1,-1,-1,-1,-1,-1,-1,-1,-1,-1,-1,-1,-1,-1,-1,-1,-1,-1,-1,-1,-1,-1,-1],"split_conditions":[2.89E1,1.4E1,6.124E1,8.04E0,2.5133333E1,4.543E1,1E0,5.74E0,6.25E-2,2.113E1,6.666667E-2,6.25E-2,4E-1,6.666667E-2,4E0,6.666667E-2,7.1428573E-1,7.1428573E-1,3.6363637E-1,6.25E-2,4.1666666E-1,5E0,1.995E1,2.3E1,1.8181819E-1,2.6666668E-1,2.4657068E0,2E0,2.857143E-1,8.621E1,9.664E1,-3.4588665E-2,-3.0060297E-2,-2.4028597E-2,-3.325221E-2,-1.7786983E-2,-3.30197E-2,1.2237949E-2,-1.8809943E-2,-7.2470917E-3,1.17548155E-2,1.5663683E-2,-2.1113284E-2,-6.366263E-2,-1.4180529E-2,-8.478439E-3,-4.734144E-2,2.1195216E-2,-3.8924303E-2,6.780286E-2,2.7700994E-2,4.9735107E-2,1.0456077E-1,-2.6058922E-2,6.661097E-2,7.3440365E-2,-3.1016052E-2,9.332274E-2,5.475065E-2,8.956972E-2,1.5469979E-1,5.285762E-2,-6.342106E-2],"split_indices":[9,9,9,9,6,9,3,9,7,9,8,7,7,8,11,8,8,8,7,7,7,10,9,6,7,7,14,12,8,9,9,0,0,0,0,0,0,0,0,0,0,0,0,0,0,0,0,0,0,0,0,0,0,0,0,0,0,0,0,0,0,0,0],"split_type":[0,0,0,0,0,0,0,0,0,0,0,0,0,0,0,0,0,0,0,0,0,0,0,0,0,0,0,0,0,0,0,0,0,0,0,0,0,0,0,0,0,0,0,0,0,0,0,0,0,0,0,0,0,0,0,0,0,0,0,0,0,0,0],"sum_hessian":[3.986E3,2.968E3,1.018E3,1.931E3,1.037E3,7.87E2,2.31E2,1.227E3,7.04E2,1.012E3,2.5E1,5.21E2,2.66E2,1.12E2,1.19E2,8.51E2,3.76E2,5.82E2,1.22E2,5.87E2,4.25E2,1.4E1,1.1E1,2.88E2,2.33E2,2.45E2,2.1E1,1E1,1.02E2,1.01E2,1.8E1,5.88E2,2.63E2,3.13E2,6.3E1,5.11E2,7.1E1,5.3E1,6.9E1,4.42E2,1.45E2,4.01E2,2.4E1,1.3E1,1E0,6E0,5E0,2.78E2,1E1,7.1E1,1.62E2,2.19E2,2.6E1,1.6E1,5E0,2E0,8E0,4E1,6.2E1,5.5E1,4.6E1,1.6E1,2E0],"tree_param":{"num_deleted":"0","num_feature":"15","num_nodes":"63","size_leaf_vector":"1"}},{"base_weights":[2.989551E-3,-3.3267552E-1,8.714633E-1,-5.67452E-1,-1.1199886E-1,5.97534E-1,1.5074567E0,-6.317128E-1,-4.6633843E-1,-2.4857223E-1,6.805932E-2,4.069539E-1,8.2844967E-1,1.166411E0,1.8756564E0,-6.572411E-1,-5.7470155E-1,-5.248661E-1,-3.8154668E-1,-3.0894646E-1,-1.9384356E-2,9.7447895E-2,-8.929717E-1,1.9634901E-1,6.351791E-1,1.4100038E0,5.859216E-1,1.3935881E0,6.5877426E-1,1.2174042E0,2.2251143E0,-3.290833E-2,-3.1266273E-3,-5.431786E-4,-3.200823E-2,-2.4319673E-2,-3.561575E-2,-1.2508466E-2,-2.9549012E-2,-1.366971E-2,-3.0336369E-2,1.2450009E-2,-1.7227916E-2,6.05378E-3,-4.310163E-2,-4.9796578E-2,2.4007613E-2,-4.3113246E-3,2.437075E-2,-4.53606E-2,3.3924576E-2,1.1511164E-1,6.1485436E-2,1.7890355E-2,4.3676864E-2,8.41593E-2,4.275596E-2,4.165421E-2,-2.4561042E-2,4.2792898E-2,9.766035E-2,1.9861351E-1,1.00666106E-1],"categories":[],"categories_nodes":[],"categories_segments":[],"categories_sizes":[],"default_left":[0,0,0,0,0,0,0,0,0,0,0,0,0,0,0,0,0,0,0,0,0,0,0,0,0,0,0,0,0,0,0,0,0,0,0,0,0,0,0,0,0,0,0,0,0,0,0,0,0,0,0,0,0,0,0,0,0,0,0,0,0,0,0],"id":24,"left_children":[1,3,5,7,9,11,13,15,17,19,21,23,25,27,29,31,33,35,37,39,41,43,45,47,49,51,53,55,57,59,61,-1,-1,-1,-1,-1,-1,-1,-1,-1,-1,-1,-1,-1,-1,-1,-1,-1,-1,-1,-1,-1,-1,-1,-1,-1,-1,-1,-1,-1,-1,-1,-1],"loss_changes":[1.1555691E3,1.4806036E2,1.9160938E2,8.70462E0,3.628887E1,3.3725006E1,3.950238E1,8.5061646E-1,2.489502E0,1.1603291E1,1.8078022E1,2.0351128E1,4.8397903E1,1.9263535E1,3.363611E1,2.7590942E-1,9.921989E0,1.946846E0,6.042988E0,6.8637505E0,1.5445605E1,1.41373E1,3.1643515E0,1.8383358E1,1.4243683E1,1.3577103E1,1.59585495E1,1.7273407E1,1.1634737E1,1.3491859E1,2.9745972E1,0E0,0E0,0E0,0E0,0E0,0E0,0E0,0E0,0E0,0E0,0E0,0E0,0E0,0E0,0E0,0E0,0E0,0E0,0E0,0E0,0E0,0E0,0E0,0E0,0E0,0E0,0E0,0E0,0E0,0E0,0E0,0E0],"parents":[2147483647,0,0,1,1,2,2,3,3,4,4,5,5,6,6,7,7,8,8,9,9,10,10,11,11,12,12,13,13,14,14,15,15,16,16,17,17,18,18,19,19,20,20,21,21,22,22,23,23,24,24,25,25,26,26,27,27,28,28,29,29,30,30],"right_children":[2,4,6,8,10,12,14,16,18,20,22,24,26,28,30,32,34,36,38,40,42,44,46,48,50,52,54,56,58,60,62,-1,-1,-1,-1,-1,-1,-1,-1,-1,-1,-1,-1,-1,-1,-1,-1,-1,-1,-1,-1,-1,-1,-1,-1,-1,-1,-1,-1,-1,-1,-1,-1],"split_conditions":[2.675E1,9.29E0,5.376E1,5.74E0,1.686E1,6.25E-2,5E0,6.666667E-2,6.666667E-2,6.25E-2,8.5714287E-1,4E0,2E-1,3.846154E-1,6.25E-2,1.1E1,5.555556E-1,2E1,7.1428573E-1,7.777778E-1,4.1666666E-1,2.535E1,5E0,4E0,6E0,1.3333334E-1,3.735E1,3E0,2.07E1,1.815E1,1E-1,-3.290833E-2,-3.1266273E-3,-5.431786E-4,-3.200823E-2,-2.4319673E-2,-3.561575E-2,-1.2508466E-2,-2.9549012E-2,-1.366971E-2,-3.0336369E-2,1.2450009E-2,-1.7227916E-2,6.05378E-3,-4.310163E-2,-4.9796578E-2,2.4007613E-2,-4.3113246E-3,2.437075E-2,-4.53606E-2,3.3924576E-2,1.1511164E-1,6.1485436E-2,1.7890355E-2,4.3676864E-2,8.41593E-2,4.275596E-2,4.165421E-2,-2.4561042E-2,4.2792898E-2,9.766035E-2,1.9861351E-1,1.00666106E-1],"split_indices":[9,9,9,9,9,7,1,8,8,7,8,1,7,8,7,10,8,0,8,8,7,6,10,10,0,7,9,13,6,6,7,0,0,0,0,0,0,0,0,0,0,0,0,0,0,0,0,0,0,0,0,0,0,0,0,0,0,0,0,0,0,0,0],"split_type":[0,0,0,0,0,0,0,0,0,0,0,0,0,0,0,0,0,0,0,0,0,0,0,0,0,0,0,0,0,0,0,0,0,0,0,0,0,0,0,0,0,0,0,0,0,0,0,0,0,0,0,0,0,0,0,0,0,0,0,0,0,0,0],"sum_hessian":[3.962E3,2.858E3,1.104E3,1.384E3,1.474E3,7.73E2,3.31E2,8.43E2,5.41E2,8.38E2,6.36E2,4.25E2,3.48E2,1.74E2,1.57E2,5.75E2,2.68E2,3.17E2,2.24E2,6.63E2,1.75E2,6.18E2,1.8E1,2.22E2,2.03E2,1.01E2,2.47E2,1.19E2,5.5E1,5.6E1,1.01E2,5.74E2,1E0,2.8E1,2.4E2,2.66E2,5.1E1,1.39E2,8.5E1,5.94E2,6.9E1,9.6E1,7.9E1,6.04E2,1.4E1,1.7E1,1E0,1.13E2,1.09E2,5E0,1.98E2,1.5E1,8.6E1,1.39E2,1.08E2,7.6E1,4.3E1,4.8E1,7E0,3.9E1,1.7E1,9E0,9.2E1],"tree_param":{"num_deleted":"0","num_feature":"15","num_nodes":"63","size_leaf_vector":"1"}},{"base_weights":[8.370446E-3,-2.0588723E-1,5.877917E-1,-3.8881552E-1,-6.717108E-3,9.2398465E-1,-3.5207212E-1,-5.725855E-1,-3.0684856E-1,5.334021E-1,-3.4727392E-1,2.4623637E0,7.6972044E-1,-1.6125219E-1,-7.571031E-1,-6.61822E-1,-5.1653266E-1,-1.5927312E-1,-5.714356E-1,1.8421736E0,4.3645564E-1,-1.3255584E-1,-6.221717E-1,1.8492804E-1,2.1272938E0,9.300879E-1,4.4845772E-1,-1.8606524E-1,1.4888052E0,-3.961963E-2,-3.4753352E-1,-3.4177613E-2,3.5707415E-3,-2.8795911E-2,-1.8499075E-2,-1.2869648E-2,1.1603183E-3,-2.8750265E-2,1.9269843E-2,1.5099028E-1,7.584159E-2,1.5522475E-2,6.42322E-2,-1.4347929E-2,1.7373882E-2,-1.7613446E-2,-3.150509E-2,9.905203E-2,2.0985058E-1,4.0274255E-2,1.07607305E-1,1.746866E-2,9.161919E-2,-1.4370868E-2,1.3196319E-2,7.637763E-3,1.0402262E-1,1.5492134E-2,-2.8980926E-2],"categories":[],"categories_nodes":[],"categories_segments":[],"categories_sizes":[],"default_left":[0,0,0,0,0,0,0,0,0,0,0,0,0,0,0,0,0,0,0,0,0,0,0,0,0,0,0,0,0,0,0,0,0,0,0,0,0,0,0,0,0,0,0,0,0,0,0,0,0,0,0,0,0,0,0,0,0,0,0],"id":25,"left_children":[1,3,5,7,9,11,13,15,17,19,21,23,25,27,29,31,33,35,37,39,41,43,45,-1,47,49,51,53,55,-1,57,-1,-1,-1,-1,-1,-1,-1,-1,-1,-1,-1,-1,-1,-1,-1,-1,-1,-1,-1,-1,-1,-1,-1,-1,-1,-1,-1,-1],"loss_changes":[4.9620624E2,1.0631137E2,3.412629E2,2.273523E1,2.5733514E2,1.8677155E2,2.1904991E1,1.9990692E0,4.106404E1,6.783844E1,5.0561424E1,2.1955353E1,3.6883453E1,8.260893E0,1.0398827E0,2.8690262E0,2.3282013E0,1.2145468E1,1.5093079E0,9.59539E0,5.3574028E1,3.589894E1,5.8280945E-1,0E0,9.545044E0,7.166159E1,3.268136E1,8.878124E0,2.0536108E0,0E0,1.552695E0,0E0,0E0,0E0,0E0,0E0,0E0,0E0,0E0,0E0,0E0,0E0,0E0,0E0,0E0,0E0,0E0,0E0,0E0,0E0,0E0,0E0,0E0,0E0,0E0,0E0,0E0,0E0,0E0],"parents":[2147483647,0,0,1,1,2,2,3,3,4,4,5,5,6,6,7,7,8,8,9,9,10,10,11,11,12,12,13,13,14,14,15,15,16,16,17,17,18,18,19,19,20,20,21,21,22,22,24,24,25,25,26,26,27,27,28,28,30,30],"right_children":[2,4,6,8,10,12,14,16,18,20,22,24,26,28,30,32,34,36,38,40,42,44,46,-1,48,50,52,54,56,-1,58,-1,-1,-1,-1,-1,-1,-1,-1,-1,-1,-1,-1,-1,-1,-1,-1,-1,-1,-1,-1,-1,-1,-1,-1,-1,-1,-1,-1],"split_conditions":[6.25E-2,6.666667E-2,5E-1,7E0,4.5454547E-1,1.4285715E-1,1E0,3E0,1.8E1,1.5384616E-1,8.5714287E-1,1E-1,3.0769232E-1,4.7083335E0,2.9337492E0,1E1,5E0,4E0,1E0,1.25E-1,3.6363637E-1,5.555556E-1,2.1666667E0,1.8492804E-1,1.3333334E-1,2.6666668E-1,4.1666666E-1,5.555556E-1,1.3E1,-3.961963E-2,3.0069363E0,-3.4177613E-2,3.5707415E-3,-2.8795911E-2,-1.8499075E-2,-1.2869648E-2,1.1603183E-3,-2.8750265E-2,1.9269843E-2,1.5099028E-1,7.584159E-2,1.5522475E-2,6.42322E-2,-1.4347929E-2,1.7373882E-2,-1.7613446E-2,-3.150509E-2,9.905203E-2,2.0985058E-1,4.0274255E-2,1.07607305E-1,1.746866E-2,9.161919E-2,-1.4370868E-2,1.3196319E-2,7.637763E-3,1.0402262E-1,1.5492134E-2,-2.8980926E-2],"split_indices":[7,8,7,0,8,7,7,1,0,8,8,7,7,13,14,12,0,1,5,8,8,8,13,0,7,7,7,7,0,0,14,0,0,0,0,0,0,0,0,0,0,0,0,0,0,0,0,0,0,0,0,0,0,0,0,0,0,0,0],"split_type":[0,0,0,0,0,0,0,0,0,0,0,0,0,0,0,0,0,0,0,0,0,0,0,0,0,0,0,0,0,0,0,0,0,0,0,0,0,0,0,0,0,0,0,0,0,0,0,0,0,0,0,0,0,0,0,0,0,0,0],"sum_hessian":[3.995E3,2.917E3,1.078E3,1.52E3,1.397E3,7.94E2,2.84E2,4.67E2,1.053E3,5.4E2,8.57E2,7.1E1,7.23E2,1.94E2,9E1,1.76E2,2.91E2,6.77E2,3.76E2,3.6E1,5.04E2,4.82E2,3.75E2,1.3E1,5.8E1,4.81E2,2.42E2,1.92E2,2E0,8.2E1,8E0,1.71E2,5E0,2.05E2,8.6E1,4.4E2,2.37E2,3.75E2,1E0,6E0,3E1,4.4E2,6.4E1,3.65E2,1.17E2,1.2E1,3.63E2,5.6E1,2E0,4.38E2,4.3E1,2.27E2,1.5E1,1.57E2,3.5E1,1E0,1E0,2E0,6E0],"tree_param":{"num_deleted":"0","num_feature":"15","num_nodes":"59","size_leaf_vector":"1"}},{"base_weights":[-9.814881E-3,-3.6127582E-1,6.2552536E-1,-5.173109E-1,-1.7219827E-1,3.9850596E-1,1.2730573E0,-5.7836485E-1,-4.3829384E-1,-3.0350387E-1,-7.887736E-2,2.4467306E-1,6.6656053E-1,3.061851E-1,1.38814E0,-5.983887E-1,-5.3265184E-1,-4.0624782E-1,-5.8683103E-1,-3.390752E-1,-1.25355E-2,6.2172437E-1,-1.853298E-1,2.75789E-1,-6.331519E-1,1.7908616E-1,7.7641207E-1,8.0124635E-1,-2.2893843E-1,1.1636505E0,2.0083025E0,-2.9997548E-2,-6.068216E-3,3.888473E-3,-2.8763438E-2,-2.4124138E-2,-1.1385209E-2,-3.0314108E-2,-8.079922E-3,-2.663041E-2,-1.427457E-2,2.0338034E-2,-2.3180155E-2,6.0644533E-2,2.2738414E-2,2.0593172E-3,-1.489121E-2,1.4738681E-2,-3.7194286E-2,-3.6331452E-2,3.558364E-2,-4.1289754E-2,1.4227449E-2,7.579731E-2,3.529872E-2,3.6023126E-3,1.12467706E-1,-2.6862357E-2,4.0171854E-2,1.1856226E-1,5.4219812E-2,1.2713365E-1,6.864076E-2],"categories":[],"categories_nodes":[],"categories_segments":[],"categories_sizes":[],"default_left":[0,0,0,0,0,0,0,0,0,0,0,0,0,0,0,0,0,0,0,0,0,0,0,0,0,0,0,0,0,0,0,0,0,0,0,0,0,0,0,0,0,0,0,0,0,0,0,0,0,0,0,0,0,0,0,0,0,0,0,0,0,0,0],"id":26,"left_children":[1,3,5,7,9,11,13,15,17,19,21,23,25,27,29,31,33,35,37,39,41,43,45,47,49,51,53,55,57,59,61,-1,-1,-1,-1,-1,-1,-1,-1,-1,-1,-1,-1,-1,-1,-1,-1,-1,-1,-1,-1,-1,-1,-1,-1,-1,-1,-1,-1,-1,-1,-1,-1],"loss_changes":[8.802405E2,7.478888E1,2.0588397E2,6.4522705E0,1.4055405E1,4.2763184E1,4.007733E1,3.961792E-1,2.665207E0,4.932762E0,5.0308075E1,1.8284012E1,2.0156326E1,1.0780192E1,4.2909485E1,3.2589722E-1,6.4702606E0,6.763832E0,7.787781E-1,4.2552986E0,1.0212513E1,8.232613E0,1.4919117E1,1.2627846E1,3.4084616E0,7.759388E0,1.5025909E1,2.201311E1,6.797451E0,2.049405E1,2.5374146E1,0E0,0E0,0E0,0E0,0E0,0E0,0E0,0E0,0E0,0E0,0E0,0E0,0E0,0E0,0E0,0E0,0E0,0E0,0E0,0E0,0E0,0E0,0E0,0E0,0E0,0E0,0E0,0E0,0E0,0E0,0E0,0E0],"parents":[2147483647,0,0,1,1,2,2,3,3,4,4,5,5,6,6,7,7,8,8,9,9,10,10,11,11,12,12,13,13,14,14,15,15,16,16,17,17,18,18,19,19,20,20,21,21,22,22,23,23,24,24,25,25,26,26,27,27,28,28,29,29,30,30],"right_children":[2,4,6,8,10,12,14,16,18,20,22,24,26,28,30,32,34,36,38,40,42,44,46,48,50,52,54,56,58,60,62,-1,-1,-1,-1,-1,-1,-1,-1,-1,-1,-1,-1,-1,-1,-1,-1,-1,-1,-1,-1,-1,-1,-1,-1,-1,-1,-1,-1,-1,-1,-1,-1],"split_conditions":[2.113E1,9.4E0,5.202E1,5.36E0,6.666667E-2,3.524E1,6.666667E-2,6.666667E-2,7.1428573E-1,6.25E-2,2.6666668E-1,1.9E1,6.666667E-2,2.315668E0,7.955E1,1E0,5.555556E-1,6.666667E-2,9.09E0,7E0,3.6363637E-1,2.1428572E-1,4.2857143E-1,2.535E1,2.979E1,7E0,1.5384616E-1,2.006782E0,1.2E1,1.25E-1,9E0,-2.9997548E-2,-6.068216E-3,3.888473E-3,-2.8763438E-2,-2.4124138E-2,-1.1385209E-2,-3.0314108E-2,-8.079922E-3,-2.663041E-2,-1.427457E-2,2.0338034E-2,-2.3180155E-2,6.0644533E-2,2.2738414E-2,2.0593172E-3,-1.489121E-2,1.4738681E-2,-3.7194286E-2,-3.6331452E-2,3.558364E-2,-4.1289754E-2,1.4227449E-2,7.579731E-2,3.529872E-2,3.6023126E-3,1.12467706E-1,-2.6862357E-2,4.0171854E-2,1.1856226E-1,5.4219812E-2,1.2713365E-1,6.864076E-2],"split_indices":[9,9,9,9,8,9,8,8,8,7,8,0,8,14,9,5,8,8,9,0,7,8,8,6,9,0,8,14,0,8,0,0,0,0,0,0,0,0,0,0,0,0,0,0,0,0,0,0,0,0,0,0,0,0,0,0,0,0,0,0,0,0,0],"split_type":[0,0,0,0,0,0,0,0,0,0,0,0,0,0,0,0,0,0,0,0,0,0,0,0,0,0,0,0,0,0,0,0,0,0,0,0,0,0,0,0,0,0,0,0,0,0,0,0,0,0,0,0,0,0,0,0,0,0,0,0,0,0,0],"sum_hessian":[3.94E3,2.537E3,1.403E3,1.389E3,1.148E3,1.04E3,3.63E2,7.8E2,6.09E2,4.76E2,6.72E2,6.62E2,3.78E2,3.9E1,3.24E2,5.34E2,2.46E2,5.04E2,1.05E2,4.24E2,5.2E1,8.8E1,5.84E2,6.4E2,2.2E1,7E1,3.08E2,2E1,1.9E1,2.4E2,8.4E1,5.32E2,2E0,1.6E1,2.3E2,3.52E2,1.52E2,1E2,5E0,9E1,3.34E2,2.7E1,2.5E1,1.8E1,7E1,1.94E2,3.9E2,6.29E2,1.1E1,2.1E1,1E0,6E0,6.4E1,2.5E1,2.83E2,1.4E1,6E0,1.5E1,4E0,1.3E1,2.27E2,4.4E1,4E1],"tree_param":{"num_deleted":"0","num_feature":"15","num_nodes":"63","size_leaf_vector":"1"}},{"base_weights":[1.6163262E-2,-2.1661977E-1,9.8278904E-1,-4.203945E-1,1.1265373E-1,7.3800915E-1,1.4100597E0,-5.153312E-1,-2.5861463E-1,-3.868496E-2,2.4504775E-1,5.7543635E-1,9.9851954E-1,8.7837386E-1,1.6869614E0,-5.4918027E-1,-4.3609402E-1,-3.4204447E-1,-1.7335345E-1,3.91587E-2,-2.246462E-1,2.6387614E-1,-1.0070688E0,6.736738E-1,1.293048E-1,7.970899E-1,1.4784452E0,9.617862E-1,-5.748145E-1,1.6861902E-1,1.5399683E0,-2.8591681E-2,-2.4997976E-2,-1.575943E-2,-2.3695534E-2,-1.5994916E-2,-3.3305287E-2,1.005196E-2,-1.4565821E-2,-7.324793E-4,6.808702E-2,-1.6955404E-2,3.786355E-3,8.053871E-3,2.291247E-2,-5.9452828E-2,-9.303924E-3,3.0445352E-2,9.112642E-2,3.8704625E-4,6.960105E-2,3.691811E-2,1.5772814E-1,-4.747811E-2,8.183917E-2,9.845982E-3,5.465882E-2,-3.918604E-2,1.1742937E-2,6.588441E-2,1.0983022E-1],"categories":[],"categories_nodes":[],"categories_segments":[],"categories_sizes":[],"default_left":[0,0,0,0,0,0,0,0,0,0,0,0,0,0,0,0,0,0,0,0,0,0,0,0,0,0,0,0,0,0,0,0,0,0,0,0,0,0,0,0,0,0,0,0,0,0,0,0,0,0,0,0,0,0,0,0,0,0,0,0,0],"id":27,"left_children":[1,3,5,7,9,11,13,15,17,19,21,23,25,27,29,31,33,35,37,39,41,43,45,47,49,51,53,55,57,-1,59,-1,-1,-1,-1,-1,-1,-1,-1,-1,-1,-1,-1,-1,-1,